svm_type c_svc
kernel_type rbf
gamma 0.5
nr_class 12
total_sv 1885
rho -0.148422 0.423196 0.825604 0.267771 0.349714 0.300636 0.404234 0.231819 0.104173 0.667834 0.0129478 0.188381 0.717759 0.0612703 0.230195 0.146489 0.281904 0.0610327 0.00902818 0.501314 -0.182468 0.298842 -0.420083 -0.147139 -0.298359 -0.126126 -0.397209 -0.397374 0.0427744 -0.623278 -0.617892 -0.319596 -0.427306 -0.343517 -0.456692 -0.593227 -0.175673 -0.651874 0.371812 0.340981 0.440552 0.252673 0.178618 0.690403 0.0039494 -0.229375 -0.0887707 0.0460231 -0.46719 0.067292 -0.193131 0.235204 0.104159 -0.0688485 0.222702 -0.129456 -0.0341032 -0.536025 0.00300815 -0.233588 -0.322272 0.17047 -0.591576 0.376008 0.0717312 -0.378015
label 10 2 3 1 6 5 4 9 11 12 8 7
nr_sv 135 163 236 261 134 48 127 108 250 79 132 212
SV
0 0.6230509118738164 2 0 0.5254756261857304 0.9650479565693626 0.5442839968585262 1.980821931435971 0.4292937262360436 2 2 91:1 134:1 
2 2 2 0 0 0 0 2 0 0 2 
0.6998406837158052 1.243161474161148 1.767591244703534 0.9177588124231614 0.938001545401511 1.249070862723366 1.141387102866439 1.128885427786928 1.180062437639 1.26711505656165 1.062718292198741 4:1 30:1 134:1 180:1 182:1 217:1 
2 2 2 0 0 0 0 2 0 0 2 
2 2 2 0 1.12454406959533 0.9269028840996011 0.5491260332264579 2 0.426195782849234 2 2 10:1 
2 2 2 0 0 0 0 2 0 0 2 
2 2 2 0 0 0 0 2 0 0 2 
2 2 2 0 0 0 0 2 0 0 2 
2 2 2 0.4656515259870726 0 0 0 2 0 0 2 
2 2 2 2 0 0 0 2 0 0 2 
1.134254165841522 2 2 2 0.6398743112318781 0.3277688068776904 0.6355948049768673 1.118201228748472 0.5292869817568923 0.7961676423634584 1.103137827295485 24:1 201:1 
2 2 2 2 0 0 0 2 0 0 2 
2 2 2 2 0 0 0 2 0 0 2 
2 2 2 2 0 0 0 2 0 0 2 
2 2 2 2 0 0 0 2 0 0 2 
0.3411526505346414 2 0.957566899353456 0 0 0.8574914612106597 0 1.996141604791249 0 2 0.5549262955824694 50:1 
2 2 2 2 0 0 0 2 0 0 2 
2 2 2 2 0 0 0 2 0 0 2 
2 2 2 2 0 0 0 2 0 0 2 
2 2 2 2 0 0 0 2 0 0 2 
2 2 2 2 0 0 0 2 0 0 2 
2 2 2 2 0 0 0 2 0 0 2 
2 2 2 2 0 0 0 2 0 0 2 
2 2 2 2 0 0 0 2 0 0 2 
2 2 2 2 0 0 0 2 0 0 2 
2 2 2 2 0 0 0 2 0 0 2 
2 2 2 2 0 0 0 2 0 0 2 
2 2 2 2 0 0 0 2 0 0 2 
0 0 0 2 0 0 0 0.7461640666613024 0 0.9861456445635428 0 198:1 
0.4487912216185416 0.8161081898529667 1.367244851385258 2 0 0 0 2 0 2 0.5494980238148931 198:1 
0 0 1.049673970822393 0.8570456164175368 0 0 0 0.6009341997845189 0 0 0 86:1 134:1 
0 1.057234663526686 0.08671375004016657 0 0.2007369034187256 0.3333376703001615 0.2179900457630216 0.2588962702572045 0.1626707105292733 0.2277872463596661 0 24:1 135:1 
2 2 2 2 0 0 0 2 0 0 2 
0.9157967579141253 1.923554646540607 2 2 0.5902235176919775 0.8778089569541239 0.6143397668254861 2 0.4836086107380449 0.4199809097759302 0.723071777653201 86:1 134:1 
2 2 2 2 0 0 0 2 0 0 2 
2 2 1.600453115391146 2 0.8396352326578381 0.809263639659841 0.8732994857317402 2 0.6872399846276465 2 2 20:1 
2 2 2 2 0 0 0 2 0 0 2 
2 2 2 2 0 0 0 2 0 0 2 
1.231532251168324 2 2 0.1230187836572582 0.840715682139978 1.100090368151165 1.015253216355869 2 0.6871142254736002 0.8091396518847779 0.9202347316904743 134:1 173:1 
0.5293706831266987 0.8854204697491305 1.172565523483464 0.6544792247545552 0.8278038928337935 0.7899584891750128 0.8589071922145577 0.7662869476722863 0.6772485482514614 1.055635833528764 0.6309363052552301 135:1 165:1 
2 2 2 2 0 0 0 2 0 0 2 
2 2 2 2 0 0 0 2 0 0 2 
2 2 2 2 0 0 0 2 0 0 2 
2 2 2 2 0 0 0 2 0 0 2 
2 2 2 2 0 0 0 2 0 0 2 
2 2 2 2 0 0 0 2 0 0 2 
0.4027731589263024 2 0 0 0 2 1.988018028677442 2 0 0 2 185:1 
2 2 2 2 0 0 0 2 0 0 2 
2 2 2 2 0 0 0 2 0 0 2 
2 2 2 2 0 0 0 2 0 0 2 
2 2 2 2 0 0 0 2 0 0 2 
0 0 0 0 0 0 0.7926339938699702 0 0 0 0 134:1 153:1 214:1 
0.1709729501517214 0.9503170528746669 1.960858380515263 0.4651655904408067 0.6546416739289238 1.393545446786749 2 1.81934252114896 0.542755336581038 0.7949327813616319 0.9601737842078851 134:1 153:1 214:1 
2 2 0.1949202176896063 0.6635262310316142 0.3461292858982689 0.5293510957446124 0.3629105615567955 2 0.2842711130637456 2 2 91:1 
0.1545168255003863 0.5721493014633203 2 0.4299816052645237 0.227979769413977 1.124653939195585 2 0.6747698238376439 0.3274989894330825 0.731144843861253 2 3:1 4:1 214:1 
2 2 1.906703391408376 1.106427560824871 0.7171623573754914 2 0.7442820037599769 2 0.5284219700656699 2 2 50:1 
0.2986906554585575 0.5043071335136368 0.5181692961407901 1.670710832920778 0.6450048652647651 0.5536132666504088 0.6708217837590911 0.1576095242540631 0.5274357364809794 0.8184873556129422 0.3942445978829565 24:1 86:1 135:1 
2 2 2 2 0 0 0 2 0 0 2 
2 2 2 2 0 0 0 2 0 0 2 
2 2 2 2 0 0 0 2 0 0 2 
2 2 2 2 0 0 0 2 0 0 2 
2 2 2 2 0 0 0 2 0 0 2 
2 2 2 2 0 0 0 2 0 0.420387161043124 2 
2 2 2 2 0 0 0 2 0 2 2 
2 2 2 2 0 0 0 2 0 2 2 
2 2 2 2 0 0 0 2 0 2 2 
2 2 2 2 0 0 0 2 0 2 2 
2 2 2 2 0 0 0 2 0 2 2 
2 2 2 0 0 2 0 2 0.8556228497155367 0 2 134:1 
0.5306835840054568 2 2 0.7892102752956227 0.9770260815451491 1.269442744248598 2 2 0.3057783895792535 0.8892859985464555 1.44785651432096 128:1 214:1 
0.6146347861074032 1.270589572228602 1.677594445710634 1.073532956150574 1.117949130000359 2 1.599728335755572 1.258572294385364 0.9372667473746527 1.440119791806422 1.120183483596712 1:1 4:1 17:1 177:1 185:1 214:1 
2 2 2 2 0 0 0 2 0 2 2 
1.78279654772223 2 2 0.5146277808749867 0 2 2 2 0 1.191620475705057 2 214:1 
2 2 2 2 0 0 0 2 0 2 2 
2 2 2 0 0.2325472064686195 2 0.5779813658906697 2 1.766258650244885 0 2 134:1 
2 2 2 2 0 1.509119654606341 0 2 0 2 2 
2 2 2 2 0 2 0 2 0 2 2 
0 1.795038067563502 0 0 0 0 0 0 0 0 0 135:1 
2 2 2 2 0 2 0 2 1.677761396389131 2 2 
2 2 2 2 0 2 0 2 2 2 2 
2 2 2 2 0 2 0 2 2 2 2 
2 2 2 2 0 2 0 2 2 2 2 
2 2 2 2 0 2 0 2 2 2 2 
2 2 1.609742689506753 2 0.8400814853789262 0.8091012369401012 0.8737938538320625 1.939823643391354 0.6866520797657341 2 2 198:1 
2 2 2 2 0 2 0 2 2 2 2 
2 2 2 2 0 2 0 2 2 2 2 
1.004063667858149 1.687519835679565 1.88129177669033 2 1.173615185948468 1.12311189070156 1.232750942545661 1.395647195379004 0.9224203149193042 1.679445230052945 1.146470510080069 18:1 115:1 126:1 195:1 
2 2 2 2 0 2 0 2 2 2 2 
2 2 2 2 0 2 0 2 2 2 2 
2 2 2 2 0 2 0 2 2 2 2 
2 2 2 2 0 2 0 2 2 2 2 
0.8306995947799368 1.375205516848668 1.782818198812396 2 1.276042072002575 1.231870206945455 1.330312678813262 1.192349697777475 1.040580245649255 1.596355102324075 0.9811879417199119 18:1 19:1 63:1 115:1 126:1 151:1 168:1 211:1 
0 1.913396686761504 2 1.853190751409347 1.153495249065432 0.5052568598963609 0.5445512251369119 0.956628507850558 0.4292100180901818 1.571912173517225 2 10:1 142:1 
2 2 2 2 0 2 0 2 2 2 2 
2 2 2 2 0 2 0 2 2 2 2 
1.07860460701942 1.763874091912105 2 2 0.697789727048413 1.646313575306682 0.834254429471166 2 0.5507609434987767 0.8877804313069005 1.669142516713933 182:1 201:1 
2 2 2 2 0 2 0 2 2 2 2 
1.903814936169723 2 0 2 2 0.02277694003974885 1.829864397712446 2 0.7454277716308383 0 2 142:1 
0.5058881527249159 0.9599044102964197 1.740103688981406 0.6824244649448662 0.7949180251922933 1.246003297984809 1.006015038493606 1.425311638960379 1.089300902628661 1.097480751199177 0.8190777173642628 4:1 30:1 72:1 134:1 182:1 
0 0 0.2290165024568049 0 0 0 0.830423486481402 0 0 0 0.549214968136011 4:1 214:1 219:1 
0.4727716648972182 1.127678797884923 2 0.7480820221610767 0.6207043866550715 1.721678587306094 1.999190680114175 1.878799153041454 0.6637354489251684 1.544897595246865 2 4:1 214:1 219:1 
2 2 2 0.5330732633238846 1.254707136779973 2 2 2 0.9092760317180741 0.3260244298534569 2 180:1 
0.3339046475583406 2 0.9436668809069747 0 0 0 0 0.2806505821033862 0 0 1.118527546143369 135:1 
2 0.9404249885896709 2 0 0 0 0 1.890800262693893 0 0 2 135:1 
0 2 2 0 0.4713285115446048 0.6986626720411888 2 2 0.3575167791990488 1.114568400534585 0.457338420112975 128:1 134:1 214:1 
2 2 2 2 0 2 0 2 2 2 2 
2 2 2 2 0 2 0 2 2 2 2 
2 2 2 2 0 2 0 2 2 2 2 
2 2 2 2 0 2 0 2 2 2 2 
2 2 2 2 0 2 0 2 2 2 2 
0.3230272522475827 0.9027215465562981 0.8625409951135631 1.611163971558836 0.7812431975278669 0.7346248692204452 0.8127807628882802 0.3608756647814265 0.6390317452067429 1.530919576377742 0.8022555723463002 86:1 91:1 171:1 180:1 
0.8990632220771162 1.18982230287789 2 1.853698953176711 0.9126909969089605 0.8280480329653203 1.176806157908998 2 0.686944555315089 2 2 66:1 142:1 
1.907489690851885 2 2 0.2469698453643844 0.8805183914419252 0.8954122881149251 0.9597894575449345 2 0.4518950276426197 0.526729736479553 1.435604750630172 171:1 180:1 
2 2 2 2 0 2 0 2 2 2 2 
0.343642668900828 0.7367442820340089 2 0.3334797378567813 0.5367633005139789 1.529774929029329 0.8471178665785788 1.470939422938431 0.3697821183486755 0.93613467415204 0.5593013252503521 3:1 4:1 134:1 182:1 
0.7920347847296444 1.818538686338776 2 1.077126449840909 1.175506855256752 1.084024053157783 1.306077008814078 1.056522363435633 1.167141083200864 1.632315165409782 1.013727695244121 3:1 50:1 67:1 216:1 217:1 
2 2 2 2 0 2 0 2 2 2 2 
2 2 1.596201694547771 0.8462184004980309 0.7477089845139312 2 2 2 0.6099131445388087 1.698723088252819 2 185:1 
2 2 2 2 0 2 0 2 2 2 2 
0.9090118048116715 1.275742081382201 2 0.9723204193929886 0.9866540214121116 0.9030415543973415 1.334687127218352 1.808970686661188 0.8749291902826607 1.480274358954263 1.025795078621265 3:1 4:1 83:1 136:1 
2 2 2 2 0 2 0 2 2 2 2 
2 2 2 2 0 2 0 2 2 2 2 
2 2 2 2 0 2 2 2 2 2 2 
2 2 2 2 0 2 2 2 2 2 2 
2 2 2 2 0 2 2 2 2 2 2 
2 2 2 2 0 2 2 2 2 2 2 
2 2 2 2 0 2 2 2 2 2 2 
2 2 2 2 0 2 2 2 2 2 2 
2 2 2 2 0 2 2 2 2 2 2 
2 2 2 2 1.199156986106534 1.696518280053129 1.756889125091644 2 0.6868703375929724 1.038897002141582 2 154:1 
2 2 2 2 1.759737307971212 2 2 2 2 2 2 
2 2 2 2 2 2 2 2 2 2 2 
2 2 2 2 0.6364491920257511 2 2 2 2 2 2 
2 2 2 2 0 2 1.559789061834663 2 2 2 2 
2 2 2 2 0 0.3728269123720809 0 2 0.7364960937056554 2 2 
-0.8106789488110979 1.089678241387354 1.543756504860941 0.677012896606191 0.799505922974315 0.756169819309778 0.8782601682421209 1.202579155952525 0.7215389251344342 1.392672182752636 0.9235440634053392 46:1 66:1 95:1 172:1 
-0.494664993386514 1.372115064644446 0.7785183255139184 0.453501135797563 0.532367024175376 0.5213921293883808 0.5476386314401976 1.320855047340459 0.4562052976846093 0.7515259208987588 1.256791527745834 92:1 159:1 
-0.6291438370100492 0.5971015861195488 0.9430808718561274 0.5937680939562123 0.6870473029203761 0.6415304812432211 0.713505425389917 0.5291614272212624 0.5643386310220304 0.8411376846043224 0.4043092118904728 9:1 33:1 34:1 116:1 186:1 215:1 
-0.3678775961668139 0.4693576873184552 0.4527093749884988 0.299247725157145 0.3446869886973989 0.3213593660985293 0.3706105843422318 0.4419290446726261 0.2522997023335354 0.401359419601213 0.3397700392525934 95:1 173:1 210:1 215:1 
-1.249654451696417 0.3874268525422931 1.763199252119253 0.5165153689164852 0.5721767423423019 1.028673811478306 0.5965661353835157 0.3126872951962862 0.6982092823587905 0.7022583567438332 0.2151656529068335 134:1 210:1 212:1 
-0 2 0 0 0 0 0 2 0 0 2 
-0 0.3977597884845821 0 0 0 0 0 0.3777057872098809 0 0.2240836368008562 0.3283490830022098 9:1 186:1 
-0.7647463562064818 0.8496435650408686 0.9523415607625452 0.2370623985143229 0.3105915076819752 0.491899561189296 0.3027819352464848 0.7234517091124699 0.3477050259388906 0.3897693976048342 0.6012243977705388 9:1 134:1 203:1 
-0 2 0 0 0 0 0 2 0 0 2 
-0 2 0 0 0 0 0 2 0 0 2 
-0 2 0 0 0 0 0 2 0 0 2 
-0 2 0 0 0 0 0 2 0 0 2 
-0 2 0 0 0 0 0 2 0 0 2 
-0 2 0 0 0 0 0 2 0 0 2 
-0 2 0 0 0 0 0 2 0 0 2 
-0 2 0 0 0 0 0 2 0 0 2 
-0 2 0 0 0 0 0 2 0 0 2 
-0 2 0 0 0 0 0 2 0 0 2 
-0 2 0 0 0 0 0 2 0 0 2 
-1.735122190140467 2 0 0 0 0 0 2 0 0 2 
-2 2 0 0 0 0 0 2 0 0 2 
-2 2 0 0 0 0 0 2 0 0 2 
-2 2 1.74412835912511 0 0 0 0 2 0 0 2 
-2 2 2 0 0 0 0 2 0 0 2 
-2 2 2 0 0 0 0 2 0 0 2 
-2 2 2 0 0 0 0 2 0 0 2 
-2 2 2 0 0 0 0 2 0 0 2 
-2 2 2 0 0 0 0 2 0 0 2 
-2 2 2 0 0 0 0 2 0 0 2 
-0.7154728495341057 2 1.069583866030605 0.6613703846457184 1.991404774868129 0.7131081929177472 1.083557796414687 2 0.6277667140001987 0.9348187410550791 2 163:1 
-2 2 2 0 0 0 0 2 0 0 2 
-0 2 0 0.1253481410822297 0.1547662238374077 0 0.1468628073668652 2 0.04361455518806846 0.1760043611825075 2 210:1 
-0.6075334633183501 0.5994063548432502 0.8837622530782341 0.5564992074624167 0.6487922836335701 0.6088336407064918 0.6726493616561654 0.5179170148426333 0.5888140846192514 0.760476828497969 0.3995240807518061 46:1 95:1 173:1 210:1 215:1 
-0 0.7552728945335123 0 0 0 0 0 0.6236312446605315 0 0 0.4272357578683488 28:1 
-0.7149549391410503 1.903430116640603 1.069995920885851 0.6612204922291028 0.7657160764345976 0.7133291982326553 0.7974879516514638 1.955774507616875 0.6287527917508204 0.9352349082730277 2 28:1 
-0.3606906213796998 0.4960272413274139 0.522466416226179 0.4660289109103695 0.4874120807017582 0.394803761314967 0.50223179402222 0.4130310681663344 1.090296746106695 0.5514378761301665 0.3195591022000328 46:1 212:1 
-2 2 2 0 0 0 0 2 0 0 2 
-2 2 2 0.5420409292743971 0 0 0 2 0 0 2 
-0.6906141539723099 0.9797814676882116 1.629904885038584 0.7451815188330875 0.8575090291528927 0.745421461773585 0.9085548477877571 0.7765357340314881 0.6637942792015084 1.057573977779057 0.5870600574884776 9:1 44:1 168:1 203:1 
-2 2 2 2 0 0 0 2 0 0 2 
-2 2 2 2 0 0 0 2 0 0 2 
-2 2 2 2 0 0 0 2 0 0 2 
-2 2 2 2 0 0 0 2 0 0 2 
-1.364497386056381 1.271855036365037 1.846700369175661 1.119500263807428 1.109653203656751 1.111016808812503 1.303834754902386 1.334054555530868 0.9195631133795654 1.5152708706964 0.9798181697868518 4:1 56:1 66:1 86:1 171:1 180:1 
-2 2 2 2 0 0 0 2 0 0 2 
-2 2 2 2 0 0 0 2 0 0 2 
-2 2 2 2 0 0 0 2 0 0 2 
-2 2 2 2 0 0 0 2 0 0 2 
-2 2 2 2 0 0 0 2 0 0 2 
-2 2 2 2 0 0 0 2 0 0 2 
-2 2 2 2 0 0 0 2 0 0 2 
-2 2 2 2 0 0 0 2 0 0 2 
-2 2 2 2 0 0 0 2 0 0 2 
-2 2 2 2 0 0 0 2 0 0 2 
-2 2 2 0.4599813513886457 1.314462595132705 1.771712697843984 2 2 0.6733571594455463 0.2550119113398224 2 180:1 
-2 2 2 0.1410977562666955 1.06952228016532 2 1.111566206174327 2 2 0.9543972303989928 2 134:1 
-2 2 2 2 0 0 0 2 0 0 2 
-2 2 2 2 0 0 0 2 0 0 2 
-2 2 2 2 0 0 0 2 0 0 2 
-2 2 2 2 0 0 0 2 0 0 2 
-2 2 2 2 0 0 0 2 0 0 2 
-2 2 2 2 0 0 0 2 0 0 2 
-2 2 2 2 0 0 0 2 0 0 2 
-2 2 2 2 0 0 0 2 0 0 2 
-0.3805748372412397 0.5287555746495031 0.5747324768142089 0.4052238023074509 0.4805953921559185 0.3825676321999447 0.498306068043377 0.4591476426999854 0.3535640413788873 0.5900641059849615 0.317869209693865 9:1 12:1 92:1 
-0 0.4099472577171768 0 0 0 0 0 0.424976557743365 0 0 0.249695158315991 80:1 
-0.4578864387861152 1.990919772824341 0.6934243219917917 0.4261372364510196 0.4910010705343499 0.4553104920129674 0.5118890792218245 1.928751140519803 0.4022886719478624 0.6108654726958302 2 80:1 
-2 2 2 2 0 0 0 2 0 0 2 
-2 2 2 2 0 0 0 2 0 0 2 
-2 2 2 2 0 0 0 2 0 0 2 
-0 0 0.2914124119576121 0 0 0 0 0 0 0 0.0801383686525268 66:1 135:1 180:1 215:1 
-1.414879332228583 1.527775509622352 2 0.7235332346313348 0.8511210838013609 0.8067507199355201 0.9727967244592646 1.665721236328841 0.6920161428684127 1.45397141065988 2 66:1 135:1 180:1 215:1 
-2 2 2 2 0 0 0 2 0 0 2 
-2 2 2 2 0 0 0 2 0 0 2 
-2 2 2 2 0 0 0 2 0 0 2 
-2 2 2 2 0 0 0 2 0 0 2 
-2 2 2 2 0 0 0 2 0 0 2 
-2 2 2 2 0 0 0 2 0 0 2 
-2 2 2 2 0 0 0 2 0 0 2 
-0 0 0 0.01914464906815879 0 0 0 0 0 0 0 92:1 212:1 
-2 2 2 2 0 0 0 2 0 0 2 
-0 0.08407606800140682 0 0 0 0 0 0.03653811769554314 0 0 0.03093592678857967 212:1 
-0 0.4012095668548902 0 0 0 0 0 0.4079918896250525 0 0 0.3291651169739811 9:1 34:1 
-2 2 2 2 0 0 0 2 0 0 2 
-0 1.962557970748762 0 0 0 0 0 2 0 0 2 212:1 
-2 2 2 2 0 0 0 2 0 0 2 
-0.6670454095398047 0.688146397213421 0.988477595989418 0.6067202648463054 0.7027162400837031 0.6633725785143667 0.7321479020969298 0.6309343128913704 0.5814141921204872 0.8539462565590192 0.4729255149727646 9:1 34:1 95:1 116:1 159:1 173:1 180:1 186:1 215:1 
-2 2 2 2 0 0 0 2 0 1.680076063125703 2 
-0.4475284994879811 0.4244560956160655 0.6683805827276682 0.4206237945057763 0.4891437253975084 0.4349861547964134 0.5122100190827543 0.3324322431164977 0.3907808803879457 0.6517307978900423 0.2713066373463167 9:1 95:1 116:1 159:1 180:1 186:1 215:1 
-0.08300683251263527 0 0.1326178437526172 0.2136791553650486 0.2297925394066722 0.1115928243632802 0.2300857098434212 0 0.0929847719995851 0.2814260920642286 0 9:1 95:1 212:1 
-0.500671666365045 0.3723531060994016 0.7144087385546291 0.4983240636964831 0.5936308563357632 0.5124743998472011 0.6187537857672857 0.2903442422892177 0.4587420510449369 0.7154036948962926 0.1592154230905917 9:1 33:1 116:1 172:1 
-2 2 2 2 0 0 0 2 0 2 2 
-0.74200893773142 0.6790645863746465 0.8634208705910532 0.552349425397727 0.6391567683830289 0.5846788755721128 0.6991485585645166 0.6816724798448774 0.5217569607546554 0.8388994836775443 0.2934965376403617 159:1 173:1 210:1 
-0.4833584467268903 0.1650731179292445 0.7271746731031986 0.4809131664124301 0.5624279892815303 0.4884781877196831 0.5832985419635833 0.1092764714349794 0.4376854635064978 0.7481773362355327 0.002130146260552721 9:1 34:1 186:1 188:1 
-2 2 2 2 0 0 0 2 0 2 2 
-2 2 2 2 0 0 0 2 0 2 2 
-2 2 2 2 0 0 0 2 0 2 2 
-2 2 2 2 0 0 0 2 0 2 2 
-2 2 2 2 0 0 0 2 0 2 2 
-0.715591646372255 2 1.141921673856008 0.6611118753939729 0.7657983453821138 0.7130953849324208 0.7978041019834905 2 2 0.9352379639065276 2 77:1 
-2 2 2 2 0 1.789709045067375 0 2 0 2 2 
-2 2 2 2 0 2 0 2 0 2 2 
-0 2 0 0 0 0 0 0.2056994797996265 2 0 0 217:1 
-0 2 0.6887181378902549 0 0 0 0 2 2 0 0 217:1 
-0 2 2 0 0 0 0 2 2 0 0.5455270055275941 217:1 
-2 2 2 2 0 2 0 2 0 2 2 
-0 0.1515348848165209 0 0 0 0 0 0.5276515498012389 0 0 0.7508284137877494 9:1 
-0.9649687999553042 0.9380250007964904 1.465776238401267 0.8815920666910666 1.015783919962982 0.9728469151029089 1.098737341403716 0.8445593430948841 0.8433695902162479 1.246995456768597 0.6366535500489608 4:1 9:1 34:1 46:1 95:1 176:1 188:1 212:1 
-2 2 2 2 0 2 0 2 0.720951767799871 2 2 
-0 0.3030925561743971 0 0 0 0 0 0.3428330813668644 0 0 0.1775690141976981 188:1 
-0 2 2 0 0 0 0.9265491988045459 2 2 0.7616873802630998 2 217:1 
-0.8796461823573604 2 1.875519977834682 0.6611477198708926 1.084246948482567 1.434230336598673 2 1.939329975765645 2 1.877215308170358 2 217:1 
-0 0.1604281624194158 0 0 0 0 0 0 0 0 0 116:1 
-0 1.919352508599293 0 0.2216280996235704 0.2516879202633243 0.06819100702749264 0.2529817305781332 1.835244403463286 0.1233392288091521 0.2580963591516711 1.986509388189728 116:1 
-2 2 2 2 0 2 0 2 2 2 2 
-0 0 0.5744391542603088 0 0 0 0 0 0 0 0 116:1 134:1 175:1 
-1.446482738114789 1.114415015512723 2 0.6635637970206359 0.7699418002229598 1.196523679366673 0.8282784394904882 1.644959173370794 0.8783288302223964 1.072928797220787 0.9431589024557177 116:1 134:1 175:1 
-2 2 2 2 0 2 0 2 2 2 2 
-2 2 2 2 0 2 0 2 2 2 2 
-2 2 2 2 0 2 0 2 2 2 2 
-0.9885517665886591 1.013880095393617 1.471830185821572 0.9020941683610307 1.047863272884094 0.9878434404520199 1.093154032984733 0.9047343743086107 0.8580582098361224 1.281445171038334 0.7004393660739744 9:1 10:1 33:1 34:1 80:1 95:1 116:1 159:1 180:1 185:1 186:1 215:1 
-0.1479999299265242 0.7395097916114461 0.2419848716128792 0.2897817109499422 0.3663407122693248 0.166059586421346 0.3574453935079955 0.6602348191310686 0.3316992063126859 0.4718819554605759 0.5087272767966358 9:1 64:1 
-1.152640244966049 1.098932523148298 1.383608262978217 0.2123108429110683 0.1815203720638768 1.27713171140819 0.289774190483136 0.5420588572284465 0.735425132921432 0.2342907121897352 0.6770886614805171 9:1 134:1 180:1 
-0.9528217991940535 1.008773642293083 1.416785337707843 0.8616071476755048 0.9981623720960565 0.9354534573713211 1.046466503753121 0.8333776864006845 0.8216041332090094 1.358185189554982 0.6675422463031641 33:1 159:1 180:1 186:1 188:1 196:1 215:1 
-0.9449202326786716 0.9994101391906204 1.549337020438196 0.9926849844663121 0.9295915432764129 0.8648068092411094 0.9143362291060865 0.9857584763026259 0.7330009851979007 1.236587279548118 0.6944828210909465 9:1 126:1 134:1 137:1 172:1 
-2 2 2 2 0 2 0 2 2 2 2 
-0.4628817897412983 0.5480281698909504 0.6875038603235362 0.4515403133734396 0.5278170906888753 0.4075937203360994 0.5612661165998845 0.3282523583338138 0.3852156589198532 0.6698479093210427 0.3274241435234598 9:1 34:1 159:1 180:1 215:1 
-0 0 0 0.03610277491735828 0.03765232911911803 0 0.04092679391773175 0 0 0.04927805271169128 0 9:1 92:1 212:1 
-2 2 2 2 0 2 0 2 2 2 2 
-2 2 2 2 0 2 0 2 2 2 2 
-2 2 2 2 0 2 0 2 2 2 2 
-2 2 2 2 0 2 0 2 2 2 2 
-2 2 2 2 0 2 0 2 2 2 2 
-2 2 2 2 0 2 0 2 2 2 2 
-2 2 2 2 0 2 0 2 2 2 2 
-2 2 2 2 0 2 0 2 2 2 2 
-2 2 2 2 0 2 0 2 2 2 2 
-2 2 2 2 0 2 0 2 2 2 2 
-2 2 2 2 0 2 0 2 2 2 2 
-2 2 2 2 0 2 0 2 2 2 2 
-2 2 2 2 0 2 0 2 2 2 2 
-2 2 2 2 0 2 0 2 2 2 2 
-2 2 2 2 0 2 0 2 2 2 2 
-2 2 2 2 0 2 0 2 2 2 2 
-2 2 2 2 0 2 0 2 2 2 2 
-2 2 2 2 0 2 0 2 2 2 2 
-2 2 2 2 0 2 2 2 2 2 2 
-2 2 2 2 0 2 2 2 2 2 2 
-2 2 2 2 0 2 2 2 2 2 2 
-2 2 2 2 0 2 2 2 2 2 2 
-2 2 2 2 0 2 2 2 2 2 2 
-2 2 2 2 0 2 2 2 2 2 2 
-2 2 2 2 0 2 2 2 2 2 2 
-2 2 2 2 0 2 2 2 2 2 2 
-2 2 2 2 2 2 2 2 2 2 2 
-2 2 2 2 2 2 2 2 2 2 2 
-2 2 2 2 2 2 2 2 2 2 2 
-0.6492717795749076 0.6659392565535945 0.954736301307885 0.5938015642787919 0.689855963980476 0.6500546004567078 0.7131769903341236 0.6016126575828888 0.5705434895682232 0.8180702263107634 0.5360673411331326 95:1 176:1 188:1 
-0.2922428613009787 1.995915858185627 0.441897586290177 0.2660655112165784 0.3060163992342611 0.2894490900062123 0.319819151804801 1.923859633337222 0.2540883120064067 0.3615776546143548 2 188:1 
-0.5904800317369371 0.4809882348120041 0.8884998967453659 0.5749937302032097 0.6519541847018722 0.5971018261138186 0.6817228827790024 0.4153954257640641 0.5074973271100482 0.8128491383534798 0.2830695057397919 92:1 186:1 212:1 
-2 2 2 2 0.8343223058017116 2 1.95578714649946 2 2 2 2 
-2 2 2 2 0 1.485359281167252 0 2 2 2 2 
-0.6887116264709061 0.6918402385063414 1.007412463675742 0.6294810642328862 0.7341848891706382 0.6924572485095539 0.7650135645334206 0.6047278539019583 0.6052718805078866 0.867567546398886 0.4756889245779329 12:1 80:1 172:1 
-0.472597537339481 -0.6661727678157621 1.243715943219238 0.557272147713416 0.6920426164452544 0.562692996409589 0.7441162944130714 0.4836042102414021 0.4859842833585931 0.8528197892323496 0.2112866200806873 90:1 136:1 153:1 154:1 162:1 164:1 217:1 
-0.6140588789835456 -0.7952470386242192 1.282467472114494 0.627813040581593 0.8320983014479366 0.6830306773920982 0.856659235676878 0.6606669649646055 0.59036965747793 1.310194741767223 0.3689767455687999 20:1 87:1 130:1 139:1 148:1 156:1 184:1 198:1 217:1 
-0.5123327723121847 -0.7214084738402295 1.266900624970448 0.5320699696195903 0.6527036433826522 0.582377095133718 0.7533180668503237 0.4872643790459065 0.6880319813968917 0.8275615907813959 0.2548319509388554 4:1 30:1 67:1 154:1 164:1 212:1 217:1 
-2 -0.1736049734779906 2 2 0.3333381233223729 0.4369777304480652 0.6381374546104585 0.7230650100155003 0.1207859545685659 0.2163785191040095 0.9440851214008826 135:1 154:1 
-0 -0 0 0 2 0 0 0 0 0 0 70:1 
-0 -0 0 0 0 0 0 2 0 0 2 
-0 -0 0 0 0 0 0 2 0 0 2 
-0 -0 0.8186686756751596 0 0 0 0 0 0 0 0 67:1 
-1.939680363962558 -0.374405331699024 0.6851283992361531 0.3797153317963784 0.4253015081162341 2 2 2 0.2981796615365997 0.8289866999274517 1.685804511790624 166:1 185:1 
-0 -0 2 0 0 0 0 0 0 0 0.1618804750321496 67:1 
-0 -0 2 0 0 0 0 0.1075257916073686 0 0 2 67:1 
-0.6319663180945161 -0.5329318756979876 2 0.334592983463958 0.6762708107183629 0.5304123192036782 0.6682514801675564 0.9106822652631018 0.3306053445040762 1.044269294511061 1.225817385031142 10:1 66:1 120:1 134:1 
-0 -0 0 0 0 0 0 2 0 0 2 
-0 -0 0 0 0 0 0 2 0 0 2 
-0 -0 0 0 0 0 0 2 0 0 2 
-0 -1.372115064644446 0 0 0 0 0 2 0 0 2 
-0 -2 0 0 0 0 0 2 0 0 2 
-0 -2 0 0 0 0 0 2 0 0 2 
-0.09368084733611813 -0 0 0.2731323365650869 0 0.4036446958907552 0 0.1723282342595094 0 0 0.09035373738834367 69:1 142:1 
-0 -0 1.846733400529834 0 2 0 1.288569828068007 0 0 0 0.3940569059676134 70:1 
-0.421755277072345 -0.5938893808652852 1.487182463251374 0.424201659818481 0.6240146105784272 0.5132534495116955 0.6390796909161117 0.4403983716100522 0.4407720489859259 0.7622723977580279 0.2757343045645189 35:1 88:1 171:1 
-0 -2 0 0 0 0 0 2 0 0 2 
-0 -2 0 0 0 0 0 2 0 0 2 
-0.04881913724076853 -0.4788089671129461 0.4092505401627644 0.1772386813275077 0.3490759645869639 0.8098713487819713 0.4695212309536955 0.3572491755863779 0.4572504539971636 0.5394925147038312 0 104:1 173:1 217:1 
-0 -0.3764626337396319 0.1794030593216969 0.07159091912653255 0.2076286367439754 0 0.3418593940969691 0 0.1830947095330063 0.384021004167621 0 173:1 180:1 217:1 
-0 -0 0 0 0 0 0 0.03540293292262722 0 0 0 173:1 217:1 
-0.01205098063368792 -0.02485563156800838 1.868189660823787 0 2 0.2595047361383071 2 1.828297718165671 0.02476590820064676 0.01723316022757236 2 70:1 
-1.142647000822139 -0 0.442639336055167 0 0 0 0 1.304789415142651 0 0 0 134:1 173:1 
-0 -0 0 0 0 0 0 0.1353678199080738 0 0 0 171:1 
-0 -2 0 0 0 0 0 2 0 0 2 
-1.968668867499845 -0.5374040611389806 0.8983463107131293 1.973175707395974 1.668151941556119 1.987161653724994 1.442319168091165 2 0.7270626806023909 0.6815991275737378 1.987241000821024 69:1 142:1 
-0 -2 0 0 0 0 0 2 0 0 2 
-0 -0 0 0 0 0 0 0 0 0 2 10:1 134:1 164:1 217:1 
-0.2765529975489263 -0.5377149697914906 0.8722252393681134 0.8369750729571809 0.6869938791769205 0.2736209036703213 1.134255121415693 0.6683566316886485 0.3943470527153782 0.825756809062231 0.03819264591672682 126:1 128:1 164:1 219:1 
-0.1570744320722674 -0.3456011891656849 1.055557573203209 0.1576431857055606 0.5886077347454024 0.2401969525919001 0.4732412953108685 0 0.2586206980166148 0.453831949079527 1.76475203390818 10:1 134:1 164:1 217:1 
-0.3827809178657866 -0.5395146734763568 1.22700202016654 0.8705079314056852 1.18011099768372 0.4276844970962852 0.6408071402455575 0.9269363541302448 0.3672923849322142 0.6392462304233284 0.2256168968924634 70:1 154:1 173:1 177:1 
-2 -0.5047490844950988 0.8091357850598946 1.420186725107266 0.5303349125039456 0.4374215921657023 0.5430871383646458 2 0.3750631127027703 0.6485117455097925 2 24:1 
-0.4722854410567771 -0 2 0 0 0 2 2 0 0 0 128:1 214:1 
-2 -0 2 0 0 0.02209908404216017 2 2 0 0 0 128:1 214:1 
-1.934128049035878 -0.383243421688322 2 0.4807159503379729 1.099336582052515 1.998134666587611 2 2 0.3260142261669451 1.742519343603306 1.920652998209212 128:1 214:1 
-2 -1.027450668894284 2 0 0 0.1651877200386121 0.2064473828555505 2 0 0 1.663679220725516 180:1 
-0 -2 0 0 0 0 0 2 0 0 2 
-0 -2 0 0 0 0 0 2 0 0 2 
-1.575894403830742 -2 1.071888280288644 0.4680337061790015 1.139093388997102 2 2 2 0.8254337884124838 0.2252985639970853 2 180:1 
-0 -0 0 0 0 0 0 2 0 0 0 171:1 
-2 -0.5137866188156937 1.986657251909541 0.1873283839905772 0.2473665175941888 0.8065228093121043 0.5045941386850372 1.985150536270165 0.1833431710050636 0.3564058966854001 1.572971643104118 134:1 173:1 
-0 -2 0 0 0 0 0 2 0 0 2 
-0 -2 0 0 0 0 0 2 0 0 2 
-0 -2 0 0 0 0 0 2 0 0 2 
-0 -2 0 0 0 0 0 2 0 0 2 
-0 -2 0 0 0 0 0 2 0 0 2 
-0 -2 0 0 0 0 0 2 0 0 2 
-0 -0 0 0 0 0 0 2 0 0 0 171:1 
-0 -0 0 0 0 0 0 2 0 0 0.05147669175650635 171:1 
-1.618332018168997 -0.3904534338516086 1.192643698177273 0.3898454781430971 0.4999269825042016 0.9282425840831408 1.339521377507949 1.996778439421335 0.2126136577257104 0.4321542386947181 2 171:1 
-0 -0 1.107462564474828 0 0 0 0 0 0 0 0 67:1 70:1 127:1 145:1 214:1 217:1 
-0 -2 0 0 0 0 0 2 0 0 2 
-0 -0 0.6475966936524059 0.2803432871097583 0 0 0 0 0 0 0 57:1 154:1 
-0.4995458924621679 -0.1743555805042843 1.999433711615322 2 0.3325973605383692 0.4068237132949402 0.3742500081018235 0.6262569206052744 0.119910452787417 0.2172532528868153 0.1208243760864357 57:1 154:1 
-0 -0 0 0 0 0 0 1.705248043396312 0 0 0.1125155772235791 57:1 
-0 -2 0 0 0 0 0 2 0 0 2 
-0 -2 0 0 0 0 0 2 0 0 2 
-0 -2 0 0 0 0 0 2 0 0 2 
-0 -2 0 0 0 0 0 2 0 0 2 
-1.082662993781864 -2 0 0 0 0 0 2 0 0 2 
-2 -2 0 0 0 0 0 2 0 0 2 
-2 -2 0 0 0 0 0 2 0 0 2 
-2 -2 0 0 0 0 0 2 0 0 2 
-2 -2 1.464180460224373 0 0 0 0 2 0 0 2 
-2 -2 2 0 0 0 0 2 0 0 2 
-2 -2 2 0 0 0 0 2 0 0 2 
-2 -2 2 0 0 0 0 2 0 0 2 
-2 -2 2 0 0 0 0 2 0 0 2 
-2 -2 2 1.815608263869294 0 0 0 2 0 0 2 
-2 -2 2 2 0 0 0 2 0 0 2 
-2 -2 2 2 0 0 0 2 0 0 2 
-2 -2 2 2 0 0 0 2 0 0 2 
-2 -2 2 2 0 0 0 2 0 0 2 
-2 -2 2 2 0 0 0 2 0 0 2 
-2 -2 2 2 0 0 0 2 0 0 2 
-2 -2 2 2 0 0 0 2 0 0 2 
-2 -2 2 2 0 0 0 2 0 0 2 
-2 -2 2 2 0 0 0 2 0 0 2 
-0.3142001191344645 -0.3605368344386317 1.809854673998618 0.2296795562582036 0.6039211415777059 0.4200012893753779 0.9869396530537561 0.170777291872262 0.2612070923525225 0.7760180199442757 0.01009896448667254 67:1 70:1 127:1 145:1 214:1 217:1 
-0.2882878617365759 -0.5909673996637214 1.495573349661513 0.1320431402251666 0.338145378360609 0.2602931718825589 0.563060204025793 0.8439249407468216 0.3006016737244759 1.404225068348211 0.4370220850753077 66:1 183:1 217:1 
-0.6485448359492039 -0.6600712408648496 1.451313150861468 0.584276040361417 0.7436977293053182 0.9515800080619506 0.8333207637973773 0.6227943926890631 0.4905794601197002 0.9100370903654058 0.4084285471271989 96:1 134:1 154:1 168:1 182:1 185:1 216:1 
-0.3594236179154883 -0.5047838083911638 0.8086913041771796 0.3218001053616034 2 0.4364800749602152 0.5443167389156354 0.3758026336570867 0.3753145334206945 0.6493302044181817 0.2346858154873134 53:1 70:1 
-0.03002498843233534 -0.2399966225025415 0 0.1970294975070721 0.29228234141246 0.1012697323226785 0.3042838462111066 0.3469467480604451 0.2003735988890956 0.1903099168119826 0.2245668655355582 120:1 164:1 183:1 
-0.431009458848272 -0.663138745353965 1.304676026021737 0.4015007308550446 0.6481297880061418 0.5234954677636343 0.7356631116378302 1.336569682988344 0.4923770144051594 1.017878184187621 0.3682995122338585 43:1 78:1 83:1 217:1 
-2 -2 2 2 0 0 0 2 0 0 2 
-2 -2 2 2 0 0 0 2 0 0 2 
-0.2546819290659021 -0.4878405224112514 0.9650322602406721 0.3095445792577147 0.411905520211895 0.394580876382388 0.6857751416050907 1.52421984394775 0.2903147223178333 0.3693237303582411 0.9212636835373054 44:1 120:1 
-0.4546049014423643 -0.5681955602969093 0.9803752863388061 0.4921892185429481 0.6114342672506834 0.726667467751738 0.7308039656003608 0.4165758521429287 0.4138501209310073 0.7846911178176684 0.321674735300732 120:1 134:1 154:1 164:1 185:1 215:1 217:1 
-2 -0.9327132394764068 2 0 0 2 0 2 1.389727552969066 0 2 134:1 
-2 -2 2 2 0 0 0 2 0 0 2 
-2 -2 2 2 0 0 0 2 0 0 2 
-2 -2 2 2 0 0 0 2 0 0 2 
-2 -2 2 2 0 0 0 2 0 0 2 
-2 -2 2 2 0 0 0 2 0 0 2 
-2 -2 2 2 0 0 0 2 0 0 2 
-2 -2 2 2 0 0 0 2 0 0 2 
-2 -2 2 2 0 0 0 2 0 0 2 
-2 -2 2 2 0 0 0 2 0 0 2 
-2 -2 2 2 0 0 0 2 0 0 2 
-0.7356192392141789 -0.504086044210909 0.8091676631809823 0.7847852483984934 0.5307216404251407 0.436527971481926 0.5433884092608392 2 0.3748531422832058 0.6483359086387463 2 195:1 
-2 -2 2 2 0 0 0 2 0 0 2 
-2 -2 2 2 0 0 0 2 0 0 2 
-2 -2 2 2 0 0 0 2 0 0 2 
-2 -2 2 2 0 0 0 2 0 0 2 
-2 -2 2 2 0 0 0 2 0 0 2 
-2 -2 2 2 0 0 0 2 0 0 2 
-2 -2 2 2 0 0 0 2 0 0 2 
-2 -2 2 2 0 0 0 2 0 0 2 
-2 -2 2 2 0 0 0 2 0 0 2 
-0.3593189938953096 -0.5043687936596397 2 0.3617358507669727 0.5502803636599292 0.4372550840100156 0.9782505764472512 2 0.3747160852154509 0.6489392571289845 2 110:1 
-2 -2 2 2 0 0 0 2 0 0 2 
-2 -2 2 2 0 0 0 2 0 0 2 
-2 -2 2 2 0 0 0 2 0 0 2 
-2 -2 2 2 0 0 0 2 0 0 2 
-2 -2 2 2 0 0 0 2 0 0 2 
-2 -2 2 2 0 0 0 2 0 0 2 
-2 -2 2 2 0 0 0 2 0 0 2 
-2 -2 2 2 0 0 0 2 0 0 2 
-2 -2 2 2 0 0 0 2 0 2 2 
-2 -2 2 2 0 0 0 2 0 2 2 
-2 -2 2 2 0 0 0 2 0 2 2 
-2 -2 2 2 0 0 0 2 0 2 2 
-2 -2 2 2 0 0 0 2 0 2 2 
-2 -2 2 2 0 1.668585054530018 0 2 0 2 2 
-2 -2 2 2 0 2 0 2 0 2 2 
-0.8244296319429637 -0.5693011503152003 1.319600575577446 0.4465279697008094 0.5889176336141493 1.483960947999098 0.8738348372043716 0.741082788105317 0.3796431165598605 0.8649483126455157 0.4636321443159247 126:1 134:1 182:1 185:1 203:1 
-0 -0 1.799921498034724 2 0 0 0 2 0 0.07180006109936603 0.09946839772420497 126:1 
-0.31000313203078 -0.4652371283290014 0.7708108617712064 0.334732427809513 0.4853665671691363 0.3741578701139288 0.5017314338305031 1.129505202582666 0.3452901514019805 0.6573498831718002 1.042337435640654 48:1 54:1 
-0.9782326713495477 -0.07499615585807734 1.935350868860295 0.01041118324576191 0 0.7241021551547213 0 2 0.04642352580518218 0.1001132047375359 0.8314018828577814 134:1 164:1 
-0.3501709862945075 -0.4637440113496121 0.7730350719915555 0.333001725304543 0.4748901856587218 0.4256454828779956 0.5293177646169052 0.338624011230736 0.3611574112935642 0.620127719830098 0.2042770036240202 4:1 102:1 152:1 164:1 183:1 217:1 
-0.4346479355724235 -0.6091054026172091 0.9772012292184887 0.4354828042651925 0.639964960101549 0.5276477559763981 0.6574567032732278 0.4476953365232026 0.452161462578708 0.7883024084864677 0.2857215226916958 2:1 21:1 37:1 48:1 54:1 102:1 111:1 112:1 134:1 164:1 187:1 217:1 
-0.3594997715074216 -0.5043687936596397 2 0.3615354362568491 0.5304648720821817 0.4371007454829332 0.9053888589699842 2 0.3747337464831752 0.6488879651002364 2 125:1 
-2 -2 2 0.1258181407000994 1.342206595734353 2 1.081694920456899 2 2 1.745106649917262 2 134:1 
-0.6238653461554873 -0.5871819778192395 1.547150336932861 0.4179473565710449 0.6593600373371047 0.6542829343568711 0.6260074039647507 0.925415321052392 0.4350066999432777 0.7450173954733573 0.5286747262443678 48:1 76:1 134:1 152:1 
-0.3531930949965155 -0.4970866029834268 1.14021210821421 0.6850786210083853 0.51718112136079 0.4295331083850139 0.4775381105626819 0.5047030834022823 0.3655419591985059 2 0.2306513690601789 111:1 196:1 
-0.01194407797117489 -0.06928017613874816 0 0 0 0.02273909834232954 0 2 0 2 1.951516091962242 196:1 
-2 -2 2 2 0 2 0 2 0 2 2 
-0.35908916322698 -0.5050094136920041 0.8073187651198434 0.3616242616847747 0.5303738691760043 0.4360213723617119 0.543316907812451 0.3763780947003434 0.3744104837107186 0.66404656219115 0.2347651315248034 2:1 21:1 37:1 48:1 102:1 111:1 156:1 164:1 187:1 217:1 
-0.2294110018105127 -0.3298106313494856 0.5167385819954943 0.2275900780806433 0.3344693267730083 0.2776130314344379 0.3465683791223222 0.1755676966631281 0.2540183892744671 0.3827270146007097 0.07751091105995815 4:1 152:1 164:1 183:1 187:1 217:1 
-2 -2 2 2 0 2 0 2 0 2 2 
-0.5388582995163773 -0.5987070074578844 1.146394022298674 0.4708080186069484 0.6279621574589224 0.6624547345292825 0.8170538278577378 0.72888187805589 0.47825719873889 1.013085440644792 0.5669381104181676 4:1 21:1 152:1 183:1 187:1 
-2 -2 2 2 0 2 0 2 2 2 2 
-0.03782469873858704 -0.07072828581876947 0.09730007185168615 0.04906129318429553 0.07013047566385473 0.05320416180774541 0.07327701299851022 0.03281498876559498 0.05296753024933362 0.1409247881073356 0.007661902157418412 2:1 21:1 37:1 48:1 102:1 111:1 164:1 187:1 217:1 
-0.05929353134491321 -0.07849530193884606 0.1685662191373898 0 0.1349668148177392 0.007009178882131691 0.33237421917799 0.2545447009924952 0.09432220676816148 0.7695967795493206 0 120:1 196:1 
-0.3781216022762414 -0.5352676122409115 0.8481585711219569 0.3825335465096337 0.5626130698295627 0.4602434918785644 0.5771743321533805 0.3909167116291654 0.396923020440133 0.6898591524556841 0.2502290566966407 2:1 21:1 37:1 48:1 76:1 102:1 111:1 134:1 152:1 164:1 187:1 217:1 
-0.4319225931636598 -0.608570508786638 0.9780060423592188 0.4348765181803104 0.6390970217654844 0.5276223094474434 0.6542708232448761 0.4543797224321837 0.4514900964256991 0.7849695809550007 0.2825967518483187 2:1 21:1 37:1 48:1 60:1 102:1 111:1 145:1 152:1 164:1 187:1 217:1 
-0.4351775904180387 -0.6113085248392387 1.300073806288326 0.4231811598794932 0.6384028171204064 0.6731915325852894 0.6576732765484476 0.6464875664094523 0.4524864088040204 1.78987341524015 0.2745190291858764 54:1 139:1 145:1 196:1 
-0.009325173309613268 -0 0 0 0 0.06439025675057561 0.1196614048813214 0 0 0 0 4:1 152:1 164:1 183:1 217:1 
-2 -2 2 2 0 2 0 2 2 2 2 
-0 -0 2 0 0 0 0 0 0 0 0 50:1 67:1 
-0 -0 2 0 0 0 0 0 0 0 0 50:1 67:1 86:1 
-0.8970169965803931 -0.4779104139037333 2 1.203984979807967 0.5041057046097315 0.397933159957638 0.2731760517787136 0 0.1085960028147951 0.5880299891067587 0 50:1 67:1 86:1 
-0 -0 2 0 0 0 0 0 0 0 0 50:1 67:1 
-0.6137344104252908 -0.4160253245827956 1.09836088460268 0.2247346514382191 0.6080237291967326 0.3701738324462737 1.087288097626044 0.462405653039737 0.3160493702112668 0.7532657330762693 0.01539578744475257 67:1 128:1 134:1 162:1 
-0.9938874888657554 -0.6886049455162119 1.720665448763126 0.5781453079604434 0.6848164905998758 0.830019479755031 0.7065308870559669 0.7219567338972314 0.4737866131995312 0.9862523842187438 0.8811411858739103 66:1 67:1 134:1 135:1 182:1 201:1 
-0.2408687900606058 -0.4306052573608565 0.5390399288704627 0.2968792012862573 0.4461142176058932 0.324834937160441 0.442639036226801 0.155745640336443 0.3177824161112959 0.5529613912642637 0.08759083728944655 17:1 69:1 164:1 177:1 185:1 
-1.732414261698649 -0.2563416841148569 2 0.5691444784486102 0.225295599561994 2 2 0.9204963299611002 0 1.538647621756299 0.5569581852819083 50:1 214:1 
-0.9316245795014398 -0.4847261658537164 1.666820312512201 1.609048612557519 0.5093157263378181 0.348497680366734 0.5290243425591596 0.3538093873948134 0.3607875450752079 0.669082610448766 0.2747206472100033 126:1 201:1 203:1 
-0.2618976928437726 -0.01879496759978555 1.260388450482569 2 0.4343412338649245 0.1800501431369029 0.3115038147537746 2 0.05878611056984616 2 2 126:1 
-0 -0.4059895597264381 0 1.203926424738378 0.09085996156848362 0 0.02871149444329841 0.1477083624886958 0.0717757769365939 0.04974435719306087 0 126:1 203:1 
-0 -0 0 0 0 0.5870410616022163 0 0 0 0 0 17:1 69:1 177:1 185:1 
-2 -0.6837236582076963 1.822163753346389 0 0.2717032295738069 0.1517561486827314 0.1011195479810924 2 0.2623692567575925 0.4544499048810532 2 135:1 
-0.4554932799334412 -0.4075909648100639 1.203688239423911 0.2617767301633783 0.4684912055682048 0.3849108573705819 0.03774123296756123 0.945034070336592 2 0.5708567888903685 0.237566629486928 30:1 50:1 
-0.3594173987886997 -0.5049369819996994 0.8088412627165348 0.3613299914756421 0.5313117380832877 0.4372508196692207 0.5443574965109964 0.3754716857347657 0.3750052702042345 0.6489710900581794 0.2348350340084388 189:1 216:1 
-0 -0 2 0 0 0 0 0 0 0 0 50:1 67:1 
-0 -0 2 0 0 0 0 0 0 0 0 50:1 67:1 
-2 -2 2 2 0 2 0 2 2 2 2 
-2 -2 2 2 0 2 0 2 2 2 2 
-2 -2 2 2 0 2 0 2 2 2 2 
-2 -2 2 2 0 2 0 2 2 2 2 
-2 -2 2 2 0 2 0 2 2 2 2 
-2 -2 2 2 0 2 0 2 2 2 2 
-1.678656275795349 -0 2 0 0 0 0 1.316439608891129 0 2 2 10:1 
-2 -2 2 2 0 2 0 2 2 2 2 
-2 -2 2 2 0 2 0 2 2 2 2 
-2 -2 2 2 0 2 0 2 2 2 2 
-2 -2 2 2 0 2 0 2 2 2 2 
-2 -2 2 2 0 2 0 2 2 2 2 
-0 -0 2 0 0 0 0 0 0 0 0 50:1 67:1 
-0.3566898963782389 -0.4809576917274808 0.7888740692350475 0.3524895357704126 0.5138942877962577 0.5014832987098466 0.520002161107985 0.3578856662437021 0.3760440944322783 0.6225771719301958 0.234248748063964 67:1 70:1 104:1 127:1 145:1 214:1 217:1 
-0 -0 0 0 0 0 0 0.03545957210363053 0 0 0 216:1 
-2 -2 2 2 0 2 0 2 2 2 2 
-2 -2 2 2 0 2 0 2 2 2 2 
-2 -2 2 2 0 2 0 2 2 2 2 
-0 -0 0 0 0 0 0 0.1704679100173442 0 0 0.2059723632153822 162:1 
-1.531625275468978 -0.1168513458727202 2 0.1158198925132293 0.8333289458265133 0.4418644609450967 0.09352363578553233 1.978593511065615 0.1007393724860607 2 2 10:1 
-0.3823542704389987 -0.4541226410388324 2 0 0.4781563495792094 0.3666429588972157 0.9759604685841174 1.748586525555208 0.3243610341211018 0.6359878897801547 0.3106807608434557 57:1 136:1 
-0 -0.1237184305211999 0 0 0.03839581826812578 0 0 1.77120581204503 0.1057789302504009 0.1309156913175153 2 57:1 
-0.1123784680118974 -0.2229697582228919 0.3205181237688235 0.2217642463444181 0.1981616589423669 0.4282127236510507 1.874867244229439 1.996492173697826 0.1566064702607871 0.2530860639535457 2 162:1 
-0.566803196712751 -0.6152430338282917 1.709933330048069 0.7505056001695323 0.642037877049014 0.6768605972743427 1.188302981526048 0.6368498935722275 0.7227944019096014 1.062335133054481 0.3539908127950884 30:1 115:1 136:1 154:1 214:1 217:1 
-0.5962663004944688 -0.4701967503141338 1.297113583802735 0.5813131796365385 0.511981159111686 0.4292820812492882 0.583987373736458 0.1888992254922301 0.357760752664338 0.5778859116940803 0.06066026088743475 3:1 67:1 154:1 183:1 217:1 
-0.7748519678181045 -0.2792996452775862 2 0 0.1447707231047152 1.164760629033821 0.3612143925749856 1.293866957664616 0.2783181551771785 0.5176098282916753 0.7515149217234454 182:1 217:1 
-0.2210990824852813 -0.3227637348974955 2 0.2241752466944085 0.866620906829746 0.2723440691697682 0.3405629125384691 0 0.2349893357052339 0.4682454594009415 1.850119375213438 10:1 180:1 
-0.4648499440634322 -0.5610718593228026 1.622358632787186 0.6555633687179581 0.5787640727113652 0.4975871097207797 0.6323883113845489 0.5958449998811159 0.3962727597603065 0.7760530503728745 0.277618987852113 154:1 168:1 182:1 217:1 219:1 
-0 -0 0 0 0 0 0 0 2 0 0 217:1 
-0 -0 0 0 0 0 0 0 2 0 0 217:1 
-0 -2 0 0 0 0 0 0 2 0 0 217:1 
-0.3545243572693724 -0.1660437791478404 0.2457642429537995 0.1130187184098973 0.1706199648323933 0.1241791891846271 0.1713996112710585 2 0.1224825050258272 0.2097322792198558 1.99011716484378 216:1 
-0 -2 0 0 0 0 0 0 2 0 0 217:1 
-0 -2 2 0 0 0 0 2 2 0 0 217:1 
-0.7470127946096978 -0.3514276928794675 0.5937936662705563 0.3134233594698047 0.3814040840291397 1.36372506325577 0.9154869718162513 0.5913046434262026 0.2683868470350618 0.5853508914204244 0.2970023043607412 151:1 185:1 200:1 217:1 
-0 -0.3800615481163598 0.5887390807100552 0.2850307288620937 0.3030436152988032 0 0.08361276604628594 0.08204683921060857 0.2781906167492841 0.4071938363758414 0.095223817069157 151:1 200:1 217:1 
-0 -2 1.17855805504845 0 0 0 0.6230491268773917 2 2 0 1.903129320728494 217:1 
-2 -2 2 2 0 2 0 2 2 2 2 
-0 -0 0 0.01531943213915314 0 0 0.1083009907184453 0.07299116993672652 0 0 0 120:1 180:1 
-0 -0 1.976371466219364 0 0 0 0 1.999171800210273 0 0 2 67:1 
-0 -0.9077756321364812 0 0 0 0 2 1.94566464537481 1.66820707501239 1.111297222345549 2 217:1 
-2 -2 2 2 0 2 0 2 2 2 2 
-2 -2 2 2 0 2 0 2 2 2 2 
-2 -2 2 2 0 2 0 2 2 2 2 
-2 -2 2 2 0 2 0 2 2 2 2 
-2 -2 2 2 0 2 0 2 2 2 2 
-2 -2 2 2 0 2 0 2 2 2 2 
-2 -0 0.4062910894819809 0 0 0 0 1.784843434476148 0 1.798070387802898 0 50:1 
-0 -0.02979894217436585 0.1331189298076498 0 0 0 0.3641569344490815 0.005542740673907413 0.06439831149278953 0.1264404880687963 0 120:1 217:1 
-2 -2 2 2 0 2 0 2 2 2 2 
-2 -2 2 2 0 2 2 2 2 2 2 
-0.9490658424361663 -0 1.936804003299714 0 0 1.165641869459818 0 2 0 1.355115658581318 1.892242891493286 50:1 
-2 -2 2 2 0 2 2 2 2 2 2 
-2 -2 2 2 0 2 2 2 2 2 2 
-2 -2 2 2 0 2 2 2 2 2 2 
-2 -2 2 2 0 2 2 2 2 2 2 
-2 -2 2 2 0 2 2 2 2 2 2 
-2 -2 2 2 0 2 2 2 2 2 2 
-2 -2 2 2 1.830602842682196 2 2 2 2 2 2 
-2 -2 2 2 2 2 2 2 2 2 2 
-2 -2 2 2 1.436735148843626 2 2 2 2 2 2 
-0.7444515703617475 -0.69471083973839 0.9713080548341919 0.3463082372098951 0.4755677744972559 1.238608589759684 0.8573341092427148 0.5970120900948919 0.3365070598295527 0.6243967894257608 0.401551540769337 120:1 180:1 185:1 215:1 
-0.6706455574377151 -0.3040007648132405 0.5829395928133525 0.06750035991507772 0.2120877046828893 1.953214297304614 0.5720836571911468 0.8073022710556035 0.2035106368259499 0.4793306897068682 0.5132745451554338 17:1 69:1 177:1 185:1 
-2 -0.2954534435599683 2 2 0 2 0.6998954804492835 2 1.724520909318572 1.89071198606854 2 
-0.2366336376494303 -0.42246620385455 0.6865840709464233 0.2325429293446331 0.439532040871228 0.3551114918845106 0.3588364247458445 0 0.3350851872573747 0.501815107625752 0 40:1 67:1 162:1 
-2 -0.1578082422004662 -2 0 0.5880545992238508 0.6884642017244776 2 2 0.04626521361713787 0.6956389594717788 1.506468413391423 128:1 214:1 
-0.1510736050504138 -0.09505051128122259 -0.7402916522993994 0.2340371424830169 0.4680404203123765 0.4213555390781871 0.6036756954312495 0.4203206827183606 0.4089250280785686 0.6330873077898418 0.3350518533688214 30:1 67:1 134:1 135:1 154:1 168:1 214:1 217:1 
-0 -0 -0 0.4517345069725885 0.005032729268748641 0.2070055527900694 0.1194322053326462 0 0.1243473643629198 0.3312673364713252 0 3:1 126:1 168:1 214:1 
-2 -2 -2 2 0 0 0 2 0 0 2 
-0.1596372696119758 -0.2593217751634032 -0.6761822209840251 0.3605550123222942 0.6467438715755655 0.5396188920954024 0.6252384639324994 0.5210322150605281 0.3842390321994069 0.7940993560814615 0.3441063102102567 3:1 66:1 67:1 70:1 120:1 128:1 135:1 136:1 154:1 168:1 180:1 182:1 201:1 214:1 
-0.03614884959203265 -0 -0.2248492953993354 0.09377146825818165 0.3384401562210952 0.3151364470704342 0.4628487232535029 0.4392648173833718 0.3967414558110352 0.4642800418968566 0.2854764251027226 4:1 72:1 105:1 134:1 217:1 
-1.055295209649616 -0 -0.01325076892867701 0.02749979850621204 0.01266721161744036 1.307343605646671 2 0.03824182239257336 0.1476680050414722 0.3637572148895193 2 4:1 44:1 214:1 
-0.7730148230753994 -1.097862951752101 -1.441996481157291 0 0 0 0 2 0 2 1.453263438837664 66:1 
-0.2225200938408312 -0.03585085103070664 -0.5320412729030259 0.2886234446502618 0.52575181066411 0.4719417125818423 0.9845670194433244 0.4276347223933855 0.3813172226246341 0.806390392960631 0.3621803414089319 4:1 66:1 136:1 142:1 182:1 214:1 217:1 
-0.9322018834124099 -0.2555313457482212 -1.440932045683268 0.3271415222093081 0.4925032849962136 0.4879227505293785 0.8016897762513342 2 0.2184937822553571 0.5035362176490616 0.196029830829092 134:1 171:1 
-0 -0 -0.5984665610339882 0 0 0 0 1.299353848274212 0 0 0.1976613318464382 50:1 57:1 67:1 
-0 -0.06014282624249127 -0.3231091532601869 0.165404243350384 0.3839854993377234 0.2704335305687934 0.7970853502480074 0.9161148969096554 0.2018740813779598 0.5613615954600384 0.04490707207187382 4:1 83:1 118:1 128:1 136:1 175:1 
-0.3285540483864036 -0 -0.3403737940200084 0.1689084528222615 0.5314793091818525 0.4537902684122767 0.7995810329260631 0.04268149151471622 0.2000711293423588 0.4867645889981874 0.2326497995760658 3:1 4:1 67:1 105:1 131:1 214:1 
-1.863110542415144 -0 -0 0 0 0 0.1361226887887658 0.1045762981541233 0 0.1237893096547274 0 3:1 4:1 83:1 136:1 
-2 -2 -2 2 0 0 0 2 0 0 2 
-0 -0 -0.1790683769575643 0.1334264979978367 0.3039862436310123 0.2659146747048064 0.3284110460728517 0 0.1665680879134536 0.3565785087345165 0 90:1 162:1 168:1 201:1 
-0 -0 -0.5968949666806341 0 1.71435431225797 0.465132740761711 2 0 0.0286629865033945 0.2595554632450954 0 70:1 154:1 214:1 
-0 -0 -0.2256269575249 0.07030259399851604 0.2318142305583094 0.1445051151280443 0.1894960857715809 0 0.2868592972151445 0.2877353456236248 0 4:1 136:1 154:1 168:1 201:1 217:1 
-0.1641853436882847 -0.2333644327603601 -0.6299028326723425 0.2238181914796947 0.3795541579960425 0.1723293146059052 0.3775816381261496 0.5872949654854773 1.052912049858003 0.2527626385556377 0.2432863625741422 30:1 136:1 137:1 
-1.710645160536034 -0.06288812218338623 -1.923187235740076 0 0 1.287895467868151 0 2 0 0 1.339482943285383 182:1 
-2 -2 -2 2 0 0 0 2 0 0 2 
-0.2117242553430387 -0.1381138362757779 -0.5322334050342861 0.289323352101134 0.5224427465073106 0.5413816340858845 0.5016882972298315 0.3333536321949435 0.3027826640851253 0.6366863923426832 0.203187833923526 4:1 67:1 105:1 118:1 134:1 171:1 180:1 182:1 
-0.07290542696918093 -0.1352388859547124 -0.3123690676032351 0.1693000660126812 0.1683585475503442 0.162232829465544 0.2096481615719274 0.1192640315776811 0.1217968770367881 0.2308764364190923 0.1700199350018585 8:1 118:1 
-1.563511894609114 -2 -2 0.6722473041665208 0.4227938696053494 0.355942659199656 0.803765214962212 2 0.2536419077061461 0.513098396854898 2 125:1 
-0 -0.5481409690407497 -1.835378425502694 0.1006328778144887 1.88982014891716 0.341082849792968 2 0.4986221213266001 1.119782862734489 0.4816859662161854 0.04946476949377435 70:1 96:1 217:1 
-0 -0 -2 0.1998271161056351 0.632686658313133 0.4144041726964386 1.04647837674458 0.2675626886512103 0.4146882241761033 0.8197195733071437 0.07832077336631285 67:1 70:1 127:1 145:1 214:1 217:1 
-2 -2 -2 2 0 0 0 2 0 0 2 
-0.06198281388552544 -0.144320589420017 -0.533206561022454 0.1698169727373007 0.3465080871930661 0.3767686436778495 0.2423884868432306 0.2577012625507385 0.3675520248146865 0.5557983031881689 0.1119003308944413 38:1 44:1 50:1 67:1 
-0.7534568969268449 -0.0115483744225437 -2 0.9504435060916809 0 0.08879685655155582 0 0 0 0.1354916247477743 0 50:1 67:1 86:1 
-0.2671839278310824 -0.1765231044478898 -1.380931664401334 0.2374264461031668 0.3620311145605528 0.3564824684992309 0.3305214108837895 0.2584699008991079 0.1958666454929133 0.5515599389737013 0.2068845554913514 50:1 67:1 86:1 165:1 
-2 -2 -2 2 0 0 0 2 0 0 2 
-2 -2 -2 2 0 0 0 2 0 0 2 
-2 -2 -2 0.1191263823928356 0.2763049065253195 0.2498967953874816 0.3546946865414715 1.331393913505442 0.156044885634305 0.263226674400477 2 135:1 180:1 
-0.1062191674628675 -0.1714139529186941 -0.4652300822674552 0.2298633982168947 0.4089490589066973 0.341696530092838 0.3949503220906264 1.58956002516964 1.497224656249267 1.573541544121147 0.3633593792095841 157:1 199:1 
-0 -0 -0.0642158652424096 0.1289842755618425 0.268746162836895 0.2093602687353044 0.4151672595698017 0.8841192320174424 0.1383949368586128 0.3562727540874352 0 8:1 26:1 83:1 136:1 175:1 
-2 -2 -2 2 0 0 0 2 0 0 2 
-2 -2 -2 2 0 0 0 2 0 0 2 
-2 -2 -2 2 0 0 0 2 0 0 2 
-2 -2 -2 2 0 0 0 2 0 0 2 
-2 -2 -2 0.9872110949839766 1.393707803819675 1.515670638830531 2 2 0.7688472651879681 0.1797054807737103 2 180:1 
-2 -2 -2 2 0 0 0 2 0 0 2 
-2 -2 -2 2 0 0 0 2 0 0 2 
-2 -2 -2 2 0 0 0 2 0 0 2 
-0.1377658291467575 -0.1856433294082298 -0.388150502280801 0.2276258010909948 0.2398622860470758 0.1662699975080781 0.378568487943314 1.068643803353627 0.05909899666027097 0.2665244391587464 0.1965423975107565 72:1 136:1 158:1 
-2 -2 -2 2 0 0 0 2 0 0 2 
-2 -2 -2 2 0 0 0 2 0 0 2 
-0.1077860404927459 -0.0726725254322681 -0.4368853192581215 0.04579081091436656 0.1556666798112798 0.3465356846446936 0.1075007668098486 0.7899181024491012 0.04607170066982783 0.5126299647410267 0.128483818804228 50:1 67:1 192:1 
-0 -0 -2 0 0 0 0 0 0 0 1.922337565696673 67:1 
-0.4730401738348587 -1.899405383104139 -2 0.1122552934860669 0 0 0 1.136876288832182 0 0 2 67:1 
-2 -2 -2 2 0 0 0 2 0 0 2 
-0 -0 -0 0.02151813858319337 0.2043734399253986 0.1843344871926179 0.2195333380814091 0 0.06770652956544418 0.3884697064532371 0 50:1 66:1 67:1 136:1 154:1 
-0 -0 -0 0.1013144393238314 0.2920587928488417 0.1862391389167378 0.3170537176294198 0.9888790656807643 0.1499264699827092 0.5954108358388149 0 4:1 8:1 43:1 134:1 136:1 
-0 -0 -0 0 0 0.1333874693053529 0 0 0 0.07765619115020045 0 50:1 67:1 154:1 
-0.10812361481949 -0.07355872206084729 -0.7171066245730495 0.04620613001222204 0.1555686116100992 0.3460307261850201 0.1076971211868692 0.06098371263233621 0.04630103575780713 0.6476034297463991 0.1288316569560855 50:1 54:1 67:1 
-0 -0 -0.07452232159442371 0.07133885709653914 0.2551042776485697 0.2802787012497838 0.08817182786266013 0 0.1777941248404539 0.4316925603143512 0 50:1 64:1 67:1 168:1 
-1.564049802505702 -2 -2 0.6725438129695535 0.4230811219783588 0.3562648593663343 0.4085338449814012 2 0.2528411229517497 0.5128199824046576 2 35:1 
-0.2302602021262912 -0 -0 0.0354143364698282 0.2526488354420429 0.3223230717269825 0.3721777960243252 0.3458326882182992 0.1948939283037736 0.2272308095055151 0 3:1 4:1 8:1 72:1 182:1 
-1.572671015061928 -1.998618333244822 -1.999081052659642 0.6274683529656552 0 2 0.2864707229629337 2 0.04749664089953613 0 2 182:1 
-0 -0.0176212366149586 -0 0 0 0 0 0 0 0 0 105:1 
-0.1322550598039256 -0 -0.2659165732579764 0.1065625085094389 0.3051395015719979 0.2637111630844061 0.2628235252294912 0 0.181665299666169 0.3788998697450282 0 30:1 105:1 135:1 201:1 
-0 -0.03210386210373165 -0.2424646009724506 0.1390180567463991 0.3234383033545207 0.2783284534684252 0.3051706304780463 0.1667440023275848 0.7129950348080462 0.3857305026670896 0.007083470355744612 30:1 154:1 201:1 215:1 
-2 -2 -2 2 0 0 0 2 0 0 2 
-0.1587960203560312 -0.2433556818239393 -0.6559577231142582 0.3676238988589768 0.6336232144562587 0.495640456759629 0.5952072790849504 0.5313099874478658 0.4227430547678387 0.703919576761499 0.2773660273476405 38:1 72:1 105:1 118:1 142:1 161:1 182:1 217:1 
-0 -0 -1.314434127002288 0 0 0 0 0 0 0 0 50:1 67:1 
-0 -0 -2 0 0 0 0 0 0 0 0 50:1 67:1 
-0 -0 -2 0 0 0 0 0 0 0 0 50:1 67:1 
-0 -0 -2 0 0 0 0 0 0 0 0 50:1 67:1 
-0 -0 -2 0 0 0 0 0 0 0 0 50:1 67:1 
-0 -0 -2 0 0 0 0 0 0 0 0 50:1 67:1 
-0.168457779975944 -0.1007571370389727 -0.8153896370573025 0 0 0.2244098058543749 0.07165581898823631 0 0 0.3418136163590761 0 50:1 67:1 180:1 
-2 -2 -2 2 0 0 0 2 0 0 2 
-0 -0 -0.156936434187 0.09457037787369636 0.2358751543012844 0.1511148095903306 0.2466684877508494 0.1472694967409981 0.121186704553581 0.2818804961236044 0.07894188457201962 4:1 135:1 136:1 154:1 168:1 182:1 
-0 -0 -0.2421397344118814 0 0.06623217328564154 0.05981172003861083 0.02914192029387992 0 0.02276354732832401 0.01341921906301038 0 135:1 136:1 154:1 168:1 182:1 
-0.1059139766287455 -0.1705104219279976 -0.4239738126557925 0.2306816763089354 0.169078361117783 1.082488593526615 0.3961372178106738 1.406367006877826 0.2447493345852943 0.4995178846334706 0.2120528225434626 4:1 161:1 
-2 -2 -2 2 0 0 0 2 0 0 2 
-2 -2 -2 2 0 0 0 2 0 0 2 
-1.563557297892451 -2 -2 0.673370848544847 0.4231359214911115 0.3560975192690792 0.4083749377081938 2 0.252917207860457 0.681779446235649 2 6:1 
-2 -2 -2 2 0 0 0 2 0 0 2 
-2 -2 -2 2 0 0 0 2 0 0 2 
-0 -0 -0 0 0 0 0 0.630840980684477 0 0 0.09532873423885885 8:1 
-2 -2 -2 2 0 0 0 2 0 0 2 
-2 -2 -2 2 0 0 0 2 0 0 2 
-1.99018663111845 -1.997665484503808 -2 0.6407975574954037 0.2227924890881701 0.2200621248598293 1.20453273646182 2 0.1368313532161984 2 2 66:1 
-2 -2 -2 2 0 0 0 2 0 0 2 
-2 -2 -2 2 0 0 0 2 0 0 2 
-2 -2 -2 2 0 0 0 2 0 0 2 
-2 -2 -2 2 0 0 0 2 0 0 2 
-0.1040754396996154 -0.1684836059508115 -0.5500655898931501 0.2097210713719952 0.3176257204941763 0.2574445508508475 0.2958353890592864 1.406230048236187 0.190041174050699 0.4323011913519717 0.2000821523633642 8:1 78:1 
-2 -2 -2 2 0 0 0 2 0 0 2 
-0 -0 -0 0.009738777651092835 0.2920367701465335 0.1855519874802764 0.1068856144118741 0.8683355165925574 0.1364623238996053 0.2221949088780796 0 8:1 26:1 175:1 
-1.425624705472746 -1.910486403559051 -1.823033909429211 0.4029059160465417 0 0 0 2 0 0 2 8:1 
-2 -2 -2 2 0 0 0 2 0 0 2 
-2 -2 -2 2 0 0 0 2 0 0 2 
-2 -1.04939669098693 -1.498684286824511 2 0.5602872491796429 0.3673942194959614 0.4104134286017598 2 0.2701988122645211 1.902600026437584 1.094139340486716 76:1 198:1 
-2 -2 -2 2 0 0 0 2 0 0 2 
-2 -2 -2 2 0 0 0 2 0 0 2 
-0 -0 -0 0 0 0 0 1.812629465272833 0 0 0 136:1 
-0 -0 -0 0 0 0 0 0 0 0 0.1483317556261222 168:1 
-0 -0 -0 0 0.09191109427660361 0.2065122304931887 0.1463303354437806 0 0.000921304171133976 0 0 154:1 182:1 
-0 -0 -0 0 0 0 0 2 0 0 0 136:1 
-1.540403763863354 -2 -2 0.5530268044096724 0.1173988033572494 0.03772510268913465 0.2044466728221925 2 0.05074969478512274 1.295958175402551 2 175:1 
-0 -0 -0 0 0 0 0 0 0 0 0.4034323558685285 10:1 
-0 -0 -0 0 0 0 0 0 0 0 2 10:1 
-0 -0 -0 0 0 0 0 0 0 0 2 10:1 
-0 -0 -0 0 0 0 0 0 0 0 2 10:1 
-0 -0 -0.0422142630121309 0 0 0 0 0 0 0 2 10:1 
-0 -0 -2 0 0 0 0 0 0 0 2 10:1 
-0.7461351773844059 -0 -2 0 0 0 0 0 0 0.4024377542746151 2 10:1 
-2 -0.04184687328851547 -2 0 0 0 0 1.853243349617019 0 2 2 10:1 
-1.988505613740663 -1.994481298606239 -2 0.6153360000200874 1.401169535158313 0.5317120664052547 0.2880727981775703 2 0.1908592239593174 2 2 10:1 
-2 -2 -2 2 0 0 0 2 0 2 2 
-2 -2 -2 2 0 0 0 2 0 2 2 
-2 -2 -2 2 0 0 0 2 0 2 2 
-2 -2 -2 2 0 0 0 2 0 2 2 
-2 -2 -2 2 0 0 0 2 0 2 2 
-2 -2 -2 2 0 0 0 2 0 2 2 
-2 -2 -2 2 0 0 0 2 0 2 2 
-2 -2 -2 2 0 2 0 2 0 2 2 
-2 -2 -2 2 0 2 0 2 1.770171167609757 2 2 
-2 -2 -2 2 0 2 0 2 2 2 2 
-2 -2 -2 2 0 2 0 2 2 2 2 
-0 -0 -0 0 0 0 0 2 0 0 0 134:1 
-0.3881537314601936 -0.105694395209261 -0.4974054001047065 0.3579462745019164 0.6615646035198035 0.4559128459157893 0.6095740120566719 0.3644301299030113 0.3957974318670833 0.6005681584977407 0.2139620301445206 3:1 4:1 142:1 171:1 180:1 201:1 
-2 -2 -2 2 0 2 0 2 2 2 2 
-2 -2 -2 2 0 2 0 2 2 2 2 
-1.558045308518774 -2 -2 0.6391736950547807 0.3804795067466989 0.3197400791760375 0.3711822453996886 2 0.2285399572424252 0.4603308628111869 2 25:1 
-0 -0.04817451739451117 -0.3769425538807463 0.1140845438302391 0.4009690741570053 0.2860155659881075 0.5823064564777851 0.4333555478219272 0.1889721240631538 0.3931939635061443 0.07357938014539925 50:1 67:1 76:1 83:1 128:1 136:1 
-0.1193721143463392 -0 -0 0 0 0.1530608385692704 2 0 0 0.01532189244630433 0 3:1 168:1 214:1 
-0 -0 -0.202906046392354 0.2783518404084377 0.3980195527323656 0.3113179946581662 0.5594177555990346 0.1156388706621988 0.200304944353851 0.4431731815075938 0 126:1 128:1 136:1 182:1 201:1 214:1 
-0 -0 -0.3064702377895068 0.1625222205337444 0.3181336646602037 0.2704253821499453 0.2965040890622377 0.05348871196316433 0.09867370760306055 0.4140405842341154 0.09690985077217815 135:1 136:1 154:1 168:1 201:1 215:1 
-0.04524604607534173 -0.03804938450765604 -0.5015614663063577 0.366024429052156 0.5336872451559527 0.4465966424557751 0.4633764546821759 0.415643090292654 0.2810152778632973 0.6765897987410036 0.1150478749153559 3:1 44:1 103:1 126:1 134:1 168:1 219:1 
-0 -0.0095845824750273 -0.6000578715476255 0.2295698073378913 0.4365211327011161 0.3285475219481611 0.4218109393045486 1.517332468125042 0.2476585031647132 0.6954027095069506 0.09603395144725399 10:1 43:1 67:1 78:1 83:1 136:1 
-0 -2 -2 0 0 0 1.656492407150237 2 2 0.9190565639257937 2 217:1 
-0.1743044030840228 -0.2629083986287265 -0.7092725636241408 0.3648564450026334 0.6520650432600068 0.5605509586735521 0.6338027625057229 0.5288208016518116 0.3899879592134944 0.7979931866947537 0.3463512566588702 30:1 66:1 67:1 72:1 103:1 128:1 134:1 135:1 154:1 161:1 168:1 182:1 185:1 201:1 
-0.1090730702961791 -0.1488366861151144 -0.7307495750437505 0.2531840749431318 0.4852920211654686 0.3793996785870249 0.4586052969964009 0.3431034135940488 0.3886878469311308 0.5519036587721504 0.1668472048543895 30:1 67:1 118:1 136:1 154:1 180:1 182:1 217:1 
-0.288091945859341 -0.03584905869610773 -0.341754405669714 0.2143900635902939 0.4083612162369227 0.3307356458629108 0.4116781581920871 0.5917177573614341 0.4026275442547899 0.5452862427000812 0.1361771145676855 4:1 30:1 72:1 134:1 136:1 201:1 219:1 
-0 -0 -0.3621862071246948 0.152077650533109 0.4300195446202581 0.3107985617570271 0.3792054633689035 0.1058688324528715 0.2167983477444591 0.442766131189242 0.2686407952812493 67:1 103:1 134:1 168:1 201:1 217:1 
-0.3097558103884012 -0.4704896615617986 -1.168830333067304 0.2800050520314833 0.5805816178852153 0.9479739135645533 0.728871281897166 0.7624574183613244 0.3095842065477593 0.7240124457703533 1.352222613571278 10:1 43:1 180:1 185:1 215:1 
-0.007058727862471016 -0 -0.3961625139923402 0.2183337187468038 0.405580436337 0.3899143165702365 0.6069230362653604 0.2614593147990183 0.2311165336470898 0.5150662545779963 0.0738987154282172 67:1 72:1 105:1 118:1 154:1 182:1 214:1 
-0.1971884275721817 -0.1994812999925068 -0.4509255010747981 0.2487362359395898 0.8906455226834975 0.3617658294872976 0.3975297735791334 1.056993994581209 0.2520033330014334 0.5280313110785038 0.2221168935065053 72:1 118:1 131:1 134:1 
-0 -0.09302507564142529 -0.3600629532695641 0 0 0 0 0 0.134006074546503 0 0 103:1 217:1 
-0.1073292999820133 -2 -1.931145771374997 0.2056630606673238 0.29324927817338 0.3004475915082165 0.3425352390519283 1.78866132661789 2 0.4325992535596935 0.6676673624068283 103:1 217:1 
-0.1426834136977502 -0.2410702246225812 -1.016316662260466 0.4079177530353342 0.4969922734997672 0.4677299326515323 0.5364277116799181 0.5188435084472025 0.3323992922468901 2 0.2847766739883803 4:1 111:1 140:1 196:1 
-0 -0 -0 0 0 0 0 0.01921387805201344 0 0 0 4:1 134:1 
-0.3922454164265342 -0 -0.1928899316987865 0.2697645394876351 0.3374478921946187 0.4076893232612742 0.5533374986968499 0.2096708202230252 0.1998918867522271 0.5015275415408987 0.3289339121937874 4:1 90:1 168:1 201:1 214:1 219:1 
-2 -2 -2 2 0 2 0 2 2 2 2 
-2 -2 -2 2 0 2 0 2 2 2 2 
-2 -2 -2 2 0 2 0 2 2 2 2 
-0 -0 -0 0.5483755189216265 0 0 0 0 0 0 0 154:1 
-2 -2 -2 2 0 2 0 2 2 2 2 
-2 -2 -2 2 0 2 0 2 2 2 2 
-2 -2 -2 2 0 2 0 2 2 2 2 
-0.5218703976273331 -0 -0 0.149103542134455 0.1751588243236425 0.9524650413296971 0.3160792588219093 1.11310675550059 0.1947011656621421 0.2905544711814995 0 4:1 134:1 136:1 180:1 182:1 
-1.875509568400249 -2 -2 0.4069715176119101 0 0.2239953546049004 2 2 2 2 2 217:1 
-1.343031749342962 -0 -2 0 0 0 0 0 0 0.2076416183776935 0 50:1 67:1 
-0.04685161366489172 -0.156515506874502 -0.4367681218711111 0.154810801852799 0.3565278426595696 0.3150683700941289 0.3124711167781464 0.7375716165102918 0.1734522125077861 0.470686318292779 0.221189142185625 43:1 50:1 57:1 76:1 83:1 136:1 
-2 -0 -2 0 0 2 2 2 0 1.833089561904266 2 214:1 
-0.2308174191492603 -0.1083094351738327 -0.6668334459811887 0.1038874129467544 0.1331768029104557 0.1408954874296511 0.133185098247945 1.096108345532126 2 0.2027094305560896 0.1682083082695773 30:1 105:1 
-1.350739987402626 -2 -1.77766874445894 0.5279626530808383 0.1295876881684442 0.08087182258287938 0.07742848035304944 1.4899552515813 0 0.1358813868897357 1.95741418924813 105:1 
-0 -0 -1.853795951011781 0 0 0 0.2938862709675275 0 0 0 0 126:1 128:1 214:1 
-0 -0 -0 0 0 0.7902985725763517 0.1520105306443642 1.996678789427202 0 0.4981111596795034 0 4:1 134:1 
-0.8192356825397489 -0 -1.232002460683965 0.9149488037888057 0.2752442414620815 0.1498044739714241 2 1.716529234699048 0.1144890215405237 0.2954186099689731 0 126:1 128:1 214:1 
-2 -2 -2 2 0 2 0 2 2 2 2 
-2 -2 -2 2 0 2 0 2 2 2 2 
-2 -2 -2 2 0 2 0 2 2 2 2 
-0 -0.07608509005872334 -0.3793690475568461 0.2059491154355686 0.390135906977949 0.3416817065361518 0.4796016951320061 0.9483997153085487 0.2380923589645614 1.155917303149044 0.0961726443275647 4:1 78:1 83:1 136:1 162:1 175:1 
-0.1354906824749713 -0.2043688766168158 -0.5791331203474116 0.3057777379817729 0.5511177028241234 0.4617305246503116 0.5306757410984779 0.4369040759690621 0.3347565740571913 0.6819231958016453 0.3319482253256482 30:1 67:1 72:1 126:1 128:1 135:1 136:1 154:1 168:1 182:1 214:1 
-0.2009595671918629 -0.1488842992438355 -0.7579168049019089 0.3447711406112417 0.5380411990039747 0.5225429196529223 0.5191801780250748 0.5060809261451857 0.3641506565006202 0.6178791452324197 0.3789339305034048 67:1 78:1 86:1 134:1 135:1 136:1 182:1 217:1 
-0 -0 -0 0.01438487626529446 0.08001711621264099 0.1692826458971669 0 0 0.1250324047938087 0.2487146900009078 0 4:1 118:1 168:1 
-0 -0 -0 2 0 0 0 0 0 0 0 201:1 
-0.02159116080594629 -0 -0.1505047958521649 0.1004438659580042 0.2271284932123373 0.2342101573082306 0.3078012860907786 0.3197002058170811 0.1788507239440957 0.4251858950366506 0 3:1 90:1 182:1 219:1 
-0.1209722438486773 -0.1004653280034028 -0.7786093036086787 0.2153312318713568 0.3795648286547417 0.3521333332705109 0.5818407678809874 0.373836295900049 0.3611919316488709 0.5512454690467622 0.2496138275191722 4:1 30:1 67:1 72:1 136:1 154:1 214:1 217:1 
-0 -0 -0 0 0 0.003035874324120347 0.182537519131475 0 0 0.08934210231858671 0 3:1 154:1 
-0 -0 -0 0 0.2421797303950398 0.1816147296040859 0.1711454976405302 2 0.1236244668173548 1.312517938584471 0.1067472994607455 66:1 182:1 
-0 -0 -0.2760342074952055 0.06113672539623504 0.2208940889966792 0.2869873714892352 0.4024448916623936 0.03427431057319972 0.1154614475590014 0.3249586161172518 0 50:1 57:1 67:1 168:1 214:1 
-0 -0 -0.04493192497026391 0.1992871751091292 0.1019517723430494 0.1781743803456417 0.1228599476226589 1.168308355365375 0 0.3015515644957304 0 4:1 50:1 57:1 83:1 136:1 
-0 -0 -0.3476107191083989 0.09048659921150168 0.2415345802670942 0.1468724212594207 0.05543830664635061 0.1561121029775059 0.1161832217571856 0.238465239602067 0 57:1 90:1 168:1 201:1 
-0.1226798607470095 -0.1959339601578443 -0.6305690079953726 0.3158305151112366 0.5875243727472658 0.4765106852307652 0.5735802750678906 0.4444254869391538 0.3702613181515469 0.6979939097562233 0.2855632753975589 4:1 30:1 67:1 99:1 128:1 135:1 154:1 168:1 180:1 201:1 
-0.4867353544502286 -0.1467502261046097 -0.5103823364847074 0.288831538606499 0.5114420414650832 0.5499186447169968 0.6209290607640705 0.4309949485480106 0.3688250727162559 0.6173398766574369 0.3012851673181624 3:1 4:1 30:1 90:1 134:1 182:1 201:1 214:1 219:1 
-0 -0 -0 0 0 0 0 2 0 0 0 134:1 
-0.2479585989451627 -0 -0.259408883771807 0.1360540048106074 0.2395837795815259 2 1.314768608434669 0.4950690388186244 0.1883995953149163 0.60627119019388 0.262961438061789 4:1 154:1 185:1 
-2 -2 -2 2 0 2 0 2 2 2 2 
-2 -2 -2 2 0 2 0 2 2 2 2 
-1.382828014098554 -0 -0 0 0 0 0 2 0 0 0 134:1 
-2 -0 -1.527896309524543 0 0 0 0 2 0 0 0.9102493787874517 134:1 
-2 -0.5279304006128309 -2 0 0 1.549949387120712 0 2 0 0 2 134:1 
-2 -2 -2 0 0 2 0 2 0 0 2 134:1 
-0.04493905520205297 -0.06425950579648351 -0.4161493069685215 0.222207209888946 0.4244901427014276 0.3697347069825846 0.4062497115570678 0.392319781571588 0.2423130694624107 0.5701696604209026 0.2384620766766013 50:1 57:1 66:1 135:1 136:1 175:1 201:1 
-0 -0 -0.01162116299340986 0.01929085802162405 0.147948670178417 0.1196772241662262 0.1772723771697197 0.498759774873327 0 0.3925679954933818 0 50:1 57:1 66:1 134:1 136:1 
-0.1001746294048865 -0.013716739699904 -0.2843327788109539 0.07445052381983841 0.002754808957812039 0.1414501346977148 0.0213239582708945 2 0 0.220922546154611 0.1135671620796318 50:1 57:1 72:1 136:1 
-0.08657140394819123 -0.1510927969962095 -0.5037986077130668 0.2730661476892509 0.505631969018749 0.5015194732531685 0.4729691127516131 0.479975222445766 0.3868905328243866 0.5890540747651052 0.2374711438746283 26:1 50:1 57:1 104:1 134:1 136:1 157:1 
-0.1625686551839106 -0.1062763266379182 -0.393368038069253 0.3365053408705767 0.423477709131299 0.5078923625566866 0.4051593351422834 0.401001948715959 0.2300832321623876 0.4855048918883595 0.161358236252395 50:1 57:1 86:1 134:1 136:1 175:1 182:1 
-0 -0 -0 0.04990945294763565 0.1955284961406551 0.2023208999308153 0.2319243372415353 0.07114880746523919 0 0.5647906465594061 0 50:1 57:1 136:1 175:1 199:1 
-0 -0 -0 0 0 0 0 0.2894841884826826 0 0 0 50:1 57:1 134:1 136:1 175:1 
-0.1016057986015372 -0 -0.1640158951782388 0 0 0 0 0.2863202029496641 0 0 0.08333637753987511 50:1 57:1 83:1 136:1 
-0 -0 -0 0 0.005540077384202184 0.1282655791404836 0.03811990131481587 0 0 0.1702212742179614 0 8:1 50:1 57:1 136:1 
-0 -0 -0 0 0 0 0 0.3127106069108256 0 0 0 50:1 57:1 136:1 175:1 
-0.1078934378197887 -0.3262514061827585 -0.4355136953455555 0.1583189315956313 0.15031962129406 0.2420974981560018 0.1867461362671152 0.3379367932913925 0.5507828452333274 0.3533696229338345 0.1898317046923076 50:1 57:1 77:1 136:1 
-2 -2 -2 0 0 2 0 2 1.745599293993327 0 2 134:1 
-0 -0 -0 0 0 0 0 0 0.00428616917763882 0 0 3:1 4:1 8:1 
-0 -0 -0 0 0 0.005271111028882976 0.1849243819444391 0 0.03039438372361675 0.2861892744659507 0 3:1 145:1 
-0 -0 -1.669461216120914 2 0 0 0 0 0 0 0 154:1 
-0 -0 -0.162347413552674 0.04952578253906931 0.1441435852315129 0.08004418533906896 0.3938782568021647 0 0 0.177063803631631 0 120:1 136:1 201:1 
-0.73129067198728 -0 -0 0.4888561574436551 0.05608848887959023 0.2945789366549239 0.3724062550033901 0.02910677741933424 0.142780665448429 1.382428305357998 0 3:1 4:1 182:1 198:1 
-0 -0 -1.465603138462173 0 2 0.003512614864171681 0.6560895261017149 0 0 0.2830094004246302 0 3:1 70:1 
-2 -0.06854709592076483 -0.621632736936181 2 0 0 0 0.05136555779503097 0 0 0.1364595324375377 201:1 
-0.1082069859175279 -0.2039803744427504 -0.8432595245708063 0.2339254232366653 0.1201240666434208 0.269889800475829 0.4769856911473528 0.4724568528533947 0.2058987623628409 0.4865307844307239 0.2431129193221027 3:1 90:1 120:1 
-0 -0 -0 0 0 0 0 0 0 0.1113236507841435 0 3:1 201:1 
-1.727365536779942 -2 -2 2 0.6470806624109756 0.3044067084967043 0 2 0.1252627292039216 2 2 126:1 
-2 -2 -2 2 0 2 0 2 2 2 2 
-2 -2 -2 2 0 2 0 2 2 2 2 
-2 -2 -2 2 0 2 0 2 2 2 2 
-2 -2 -2 2 0 2 0 2 2 2 2 
-2 -2 -2 2 0 2 0 2 2 2 2 
-2 -2 -2 2 0 2 0 2 2 2 2 
-2 -2 -2 0.6485550123484024 1.547672189350338 2 1.033079240400472 2 2 1.289874540177695 2 134:1 
-1.563755862965644 -2 -2 0.6731200380738503 0.4225778629430392 0.3522383030544508 0.3986746678323305 2 0.2366574745873244 1.642320010379003 2 106:1 
-2 -2 -2 2 0 2 0 2 2 2 2 
-1.563711839854411 -2 -2 0.673120561822663 0.4460462736147863 0.3561718265851015 0.9020242146785244 2 0.2538347035203739 0.5125022462547772 2 110:1 
-2 -2 -2 2 0 2 0 2 2 2 2 
-0 -0.7289548513506408 -0.5806482352815922 0.1229850184383792 0.1681788458372673 0 0 0.3221270548906953 0.04321657372031554 0.07389250128763084 0 44:1 168:1 
-2 -2 -2 2 0 2 0 2 2 2 2 
-1.869400829016734 -2 -1.99358860020764 1.625207906360275 0 0 0 2 0 0 2 201:1 
-2 -2 -2 2 0 2 2 2 2 2 2 
-0 -0 -0 0 0 0.005770522489986172 0.1852802943994215 0 0.02822278157154626 0.2840418931838131 0 3:1 106:1 
-1.563470809228057 -2 -2 0.7461288682252909 0.3715064150824028 1.53187326481 0.4088534899747805 2 0.2011249537287928 0.8066925916516138 2 145:1 
-0 -0 -0 0.05703669191634569 0 0.2045246068036927 0.2697931622819983 0.538208906390469 0.152684023320417 0.3910181686559511 0 3:1 26:1 175:1 
-0.1019333099930105 -0.1637203349151077 -0.3812621996218338 0.1717296389875606 0 0 0.1934957378790622 0.2740671038088584 0 0 0.1972871662504349 26:1 136:1 
-1.069866230562285 -1.698213791230929 -1.943020414866162 0.01403408301160065 0 0 1.364114053236241 2 0 0 1.808719908351101 136:1 
-0.3816018467198438 -0 -1.194119729148635 0 0 0 0 0.1150587392526088 0 0 0 50:1 57:1 136:1 
-2 -2 -2 2 0 2 2 2 2 2 2 
-1.563723436778218 -1.892754174002506 -2 0.6188942996649175 2 0.1692141627031791 2 2 0 0 2 70:1 
-1.769247077845001 -0.07474819987065656 -2 2 0 0 0 1.639940987530654 0 0 0.5369070892315119 154:1 
-1.706113405247137 -0 -1.464612211453918 0.1236284260655758 0 0.04240297601449834 0.107394945343954 0 0.03558526846715042 0.2398888889524159 0.4390775688483528 3:1 135:1 
-0 -0.006829227605265069 -0 0 0 0 0 0 0 0 0 3:1 
-2 -2 -2 2 0 2 2 2 2 2 2 
-0 -0 -0 0 0 0 0.1283692284524254 1.044681981657039 0 0.2117363072197732 0 3:1 134:1 
-1.688039825657458 -1.998153630763251 -2 1.97490654164325 0 0.1835066614616323 0.35829050571222 2 0 0 2 154:1 
-2 -2 -2 2 0 2 2 2 2 2 2 
-2 -2 -2 2 0 2 2 2 2 2 2 
-1.526713768110591 -1.993580230337689 -1.871158466548738 0.330342026638742 0 0 0 1.910968785166535 0 0 2 168:1 
-0.1528314123697802 -0.05682045019941424 -0.5724631461163207 0.1529810570049495 0.3646370739432388 0.3059101398805599 0.9681288152122905 1.441796833496118 0.2144258242683914 0.6696715945507893 0.08242913477437398 43:1 83:1 128:1 136:1 175:1 214:1 
-1.659032171962636 -1.998263049289714 -0.3054123212420572 0.3998909714605386 0 0 0 1.04056879248304 0 0 1.890716744293114 3:1 
-2 -2 -2 2 0 2 2 2 2 2 2 
-2 -2 -2 2 0 2 2 2 2 2 2 
-2 -2 -2 2 2 2 2 2 2 2 2 
-0 -0 -0 0 0 0 0 1.003327918253688 0 0 0 4:1 
-1.563847771579009 -2 -2 0.6731200380738506 0.4230996733744732 0.3556640405612084 0.4082588116825462 2 1.221092650123246 1.725474235494615 2 89:1 
-0 -0 -0 0 0 0 0 2 0 0 0 4:1 
-0 -0 -0 0 0 0 0 2 0 0 0 4:1 
-0 -0 -0 0 0 0 0 2 0 0 0 4:1 
-0 -0 -0 0 0 0 0 2 0 0 0.1333119196463473 4:1 
-2 -2 -2 2 2 2 2 2 2 2 2 
-0 -0 -0 0 0 0 0 2 0 0 2 4:1 
-2 -2 -2 2 2 2 1.785529650757806 2 2 0.5964300533537928 2 
-2 -2 -2 2 0.2538811066163376 0.321855084566937 0 2 2 0 2 
-1.131990033972704 -0.1082709725464291 -0 0 0 0 1.804602716301788 2 0 0 2 4:1 
-2 -1.982406864881292 -2 1.296113416351406 0 2 2 2 0 2 2 214:1 
-2 -1.989722756762063 -1.785032393213604 0.6478463594863551 0 1.460330521710515 0.1783014936832475 2 0.5071405769530455 0.7974479398550204 2 4:1 
-1.49874199884457 -1.990087656737862 -2 0.5261126083054947 0.1482258635037315 0.1211160296155391 0.1370433565488341 2 0 2 1.914746333158988 199:1 
-0.0640007356385528 -0.169383839928913 -0.6977781714420325 0.4086922916172578 0.52263399728292 0.4367979192549336 0.4494256024581542 0.3132461763873044 0.3103804418306956 0.6359635721201469 0.07731859085118532 25:1 44:1 126:1 135:1 168:1 203:1 
-0.3687621783671664 -0.488315905015433 -0.7411622809088193 -0.8448370037374429 0.7254252761711035 0.7069188836861168 0.7628933686035703 0.6492344746363703 0.6265221119240636 0.8975725476140495 0.5203439737081402 18:1 19:1 27:1 39:1 115:1 126:1 151:1 162:1 211:1 
-0.1730300024377779 -0.2336335455411843 -0.4160853839388195 -0 0 0 0 0.3699643762810894 0 0 0.2563927488355263 27:1 
-0.3840084919619115 -0.2822354997317149 -0.4540360858346338 -0.5416465034620728 0.5141106481333464 0.4883382562797086 0.5154563505652874 0.4064766609241462 0.4438034557227089 0.6390014120468932 0.2957348636716059 18:1 115:1 122:1 126:1 151:1 211:1 
-2 -2 -2 -2 0 0 0 2 0 0 2 
-0.3620824723418667 -0.2557809969422811 -0.4483671055995211 -0.5610601106187975 0.5307377050864368 0.4872722076019005 0.5937728952498809 0.3968490980153098 0.4220949398982587 0.6746342988796691 0.2900878955677113 18:1 19:1 49:1 115:1 126:1 
-2 -2 -2 -2 0 0 0 2 0 0 2 
-2 -2 -2 -2 0 0 0 2 0 0 2 
-1.646978573470207 -0.6177568209188503 -0.932993494998037 -1.072976147119565 0.902002973220891 0.8797525678277872 0.9443364747637726 0.8235385571478259 0.773976871423561 1.114379529137328 0.6593920319565248 18:1 19:1 39:1 63:1 115:1 126:1 151:1 168:1 211:1 
-1.258456086287445 -0.8690038559888313 -1.388112010097807 -1.677604631188771 0.7875739877394049 1.575863693211427 1.309430063285932 1.459699812950848 0.7510839335224343 2 1.139360111901537 4:1 50:1 115:1 
-0.1214360412281548 -0.1784739589507981 -0.121517897403308 -0.2855396294410114 0.2095031334242289 0.1681550683525956 0.6110660899408218 0.02875865460809681 0.1485096310257223 0 0.1643261951003021 27:1 115:1 180:1 
-2 -1.970166108070773 -1.960347707138634 -1.929942735298869 0.3211168021779766 0.3501643812681057 0.2431918624793832 1.973267087841719 0.3118187379749442 0.5071611863764615 2 27:1 
-0.09423132189896072 -0.2231529563917723 -0.3503039986506984 -0.3861553889432879 0.3270896457084407 0.3227124302503077 0.3575417164874007 0.305882067541024 0.2763087824524284 0.4069872207195584 0.2412330287001991 18:1 19:1 39:1 115:1 126:1 151:1 162:1 211:1 
-0 -0 -1.883369739340052 -0 0 0 0 0 0 0 0 126:1 
-0.3805964181621788 -0 -0 -0 0 0 0 0 0 0 0 198:1 
-2 -2 -2 -1.99408678757044 0.2933811661920528 0.05297963072528302 0.215613065184742 2 0.2782215305233415 0.4117006544767465 2 211:1 
-2 -0 -0 -0 0 0 0 0 0 0 0 198:1 
-2 -0 -0 -0 0 0 0 0.8420835687426882 0 0.4147820478413019 0 198:1 
-0 -0 -2 -0.2633541222388369 0 0 0 0.8260107817386413 0 0 0 126:1 
-0 -0.1155082130585097 -0.1589041985584996 -0.1645387905513651 0.2507707827100754 0 0.1313189193053974 0.12303521303895 0.1954152255880403 0.2153483662258708 0.02727401271881182 49:1 115:1 211:1 
-0.6456253360780596 -0.6406636076409407 -0.9717761854704997 -1.110393558670366 0.9331613612641982 0.9349150525741652 0.9967412977261919 0.8549751655281026 0.8025964835338164 1.151941965913958 0.6907063785741303 18:1 49:1 63:1 115:1 126:1 151:1 168:1 185:1 195:1 
-0.3019087982893052 -0.3911138113264291 -2 -2 0 0 0 2 0 0.2771877693339325 0.3229914991681824 126:1 
-1.997496453178017 -1.998693746729323 -2 -2 0.3829095191160837 0.2392169945928487 0.3638930836604809 1.915266519668403 0.1311898456013313 1.986586529052308 2 126:1 
-2 -2 -2 -2 0 0 0 2 0 0 2 
-2 -2 -2 -2 0 0 0 2 0 0 2 
-2 -2 -2 -2 0 0 0 2 0 0 2 
-2 -0.5220202840186432 -0.8178386598712525 -1.813561923281538 0 0 0 2 0 2 0.5437472427994064 198:1 
-1.993089063630558 -1.981389125240338 -1.996316594578482 -2 0.8534913273113161 0.8352801383793624 0.8970396290925956 1.857204021644355 0.7346215676731999 2 2 198:1 
-0.3632827056484646 -0.4740890137611178 -0.7417873673503704 -0.8592728338742901 0.7182427539698234 0.7110600569942942 0.7617207920078267 0.6495088239124382 0.6197449919743303 0.8880037081528255 0.5171906982528455 18:1 49:1 63:1 115:1 151:1 195:1 
-0.08048104192188299 -0.2058393284409693 -0.4665581763879104 -0.667716396702499 0.6351830593462191 0.6509060674228625 0.6127950028348504 0.4846198994243713 0.5450653067928888 0.7801430174613965 0.2540607176456919 27:1 115:1 145:1 151:1 211:1 
-0.4464754770910051 -0.3558701216037028 -0.5123638596872856 -0.6822630606216366 0.7821158458396456 1.076947590031902 0.7166377563228793 0.4752878405275138 0.887029504074741 0.8015754556365664 0.3825845632903926 19:1 115:1 126:1 134:1 
-2 -2 -2 -2 0 0 0 2 0 0 2 
-2 -2 -2 -2 0 0 0 2 0 0 2 
-2 -2 -2 -2 0 0 0 2 0 0 2 
-2 -2 -2 -2 0 0 0 2 0 0 2 
-2 -2 -2 -2 0 0 0 2 0 0 2 
-2 -2 -2 -2 0 0 0 2 0 0 2 
-2 -2 -2 -2 0 0 0 2 0 0 2 
-2 -2 -2 -2 0 0 0 2 0 0 2 
-0.4314356735765355 -0.6904100769640253 -0.6423700283857716 -0.424460439389832 0 0 0 0.6500380610642938 0 0 0.6466619536697291 19:1 115:1 
-0.1416009705814322 -0.1814703993426666 -0.2699214170088149 -0.358582494469505 0.3412499460991275 0.3047035628750113 0.456268859846323 0.2140894279864436 0.2884099321848863 0.3699760105821943 0.1645685382875342 115:1 126:1 151:1 180:1 211:1 
-2 -2 -2 -2 0 0 0 2 0 0 2 
-2 -2 -2 -2 0 0 0 2 0 0 2 
-2 -2 -2 -2 0 0 0 2 0 0 2 
-2 -2 -2 -2 0 0 0 2 0 0 2 
-2 -2 -2 -2 0 0 0 2 0 0 2 
-2 -2 -2 -2 0 0 0 2 0 0 2 
-2 -2 -2 -2 0 0 0 2 0 0 2 
-2 -2 -2 -2 0 0 0 2 0 0 2 
-2 -2 -2 -2 0 0 0 2 0 0 2 
-2 -2 -2 -2 0 0 0 2 0 0 2 
-2 -2 -2 -2 0 0 0 2 0 0 2 
-2 -2 -2 -2 0 0 0 2 0 0 2 
-2 -2 -2 -2 0 0 0 2 0 0 2 
-2 -2 -2 -2 0 0 0 2 0 0 2 
-2 -0.5852565750524675 -1.74590468031229 -1.007076542212231 0.8543445273092338 0.8344744001902222 0.8964995199026479 1.05844870993522 0.7339383900805779 1.052867386340601 1.58337294614591 24:1 142:1 
-2 -0.147457655975284 -1.963242617955535 -0 0.665877873650021 0 0.3529935077999779 2 0 0 2 142:1 
-2 -2 -1.143050355907837 -1.935239559739637 2 0.353498442610953 2 2 0.7261580503966472 0.4135569808107674 2 142:1 
-2 -2 -2 -2 0 0 0 2 0 0 2 
-2 -2 -2 -2 0 0 0 2 0 0 2 
-2 -2 -2 -2 0 0 0 2 0 0.4224654851834293 2 
-2 -2 -2 -2 0 0 0 2 0 2 2 
-2 -2 -2 -2 0 0 0 2 0 2 2 
-2 -2 -2 -2 0 0 0 2 0 2 2 
-2 -2 -2 -2 0 0 0 2 0 2 2 
-2 -2 -2 -2 0 0 0 2 0 2 2 
-0.5705375390220835 -0 -0 -0 0 0 0 0 0 0 0 86:1 
-2 -2 -2 -2 0 1.096635454034477 0 2 0 2 2 
-0.4563156405120592 -0.5846642531967241 -1.14202212316769 -1.062049112308768 0.8544237437114515 0.8350091487985388 0.8965606542083377 0.7796044253055234 0.7329145184727954 2 0.6254305993393586 86:1 111:1 
-2 -0.1060239134425091 -0.3645936757635926 -0.3220520164855443 0 0 0 0.07612150314829966 0 0 0 86:1 
-0.3743926761924179 -0 -0 -0 0 0 0 0 0 0.4061048709943252 0 20:1 
-2 -2 -2 -2 0 2 0 2 0 2 2 
-2 -0.5085559495430387 -0.8477636115575445 -0.4909576931096374 0 0 0 0.7344932995386145 0 2 0.5434527676387478 20:1 
-2 -1.995133712829633 -1.966935359668827 -2 0.8532557756642878 0.8345094176943364 0.8970365511880257 1.964794290848429 0.7340304529769152 2 2 20:1 
-2 -2 -2 -2 0 2 0 2 0 2 2 
-2 -2 -2 -2 0 2 0 2 0 2 2 
-2 -2 -2 -2 0 2 0 2 1.508719414473933 2 2 
-2 -2 -2 -2 0 2 0 2 2 2 2 
-2 -2 -2 -1.72491003528109 0.1595891169130882 0.104174416032349 0.1571577073955678 1.973358607489012 0.1103008877888366 0 1.989427788052886 86:1 
-0.4374283297944722 -0.5633064520348929 -0.483766334051276 -0.1023195105098634 0 0 0 0.4209485464257709 0 0 0.5028079727847067 115:1 151:1 
-0 -0.02100462409105018 -0.1645346143894669 -0.2330754636700437 0.3054825597635265 0.303360062250724 0.2902109486765485 0.1162441225725074 0.2599548976520693 0.3959534074761621 0.0496067359951208 27:1 115:1 126:1 151:1 180:1 
-0 -0 -0 -0 0.07933845155814918 0 0 0 0.006100895146311827 0.07902229416427654 0 19:1 27:1 115:1 
-0.3753873877363393 -0 -1.929183353977754 -2 0 0 0 0.166560250215874 0 0 0 154:1 
-2 -0.1485758771812251 -0.6344860034286544 -2 0 0 0 0 0 0 0 201:1 
-2 -0.5059772420756341 -2 -2 0 0 0 2 0 0 0.8675289567946538 154:1 
-1.904570680747758 -2 -2 -2 0.2757210276780288 0 0 1.681422720102437 0.2885652955320728 0.0251754562574067 1.839199357063051 201:1 
-1.478019172416403 -0.5840108683290853 -1.330537229483359 -2 0.9536596223134737 2 2 1.678986428155527 0.7338786816523956 1.728734129128578 1.251539116263833 201:1 214:1 
-1.999005288456078 -1.997554407728296 -2 -2 1.046630855779073 1.715319225537108 1.77178787035954 1.951001578125082 0.7335172170194998 1.053184819134028 2 154:1 
-0.1356550208973346 -0 -0.07757694733450698 -0.1743462393899502 0.2141493696096533 0.1432359153057876 0.2018925199296088 0.04628458615686325 0.1782541093572931 0.2573633240462979 0 18:1 19:1 115:1 151:1 211:1 
-1.439057890513073 -0.5531022710569399 -0.8476514149207953 -0.5948349679193584 0.2952077677730956 0.2048751169101268 0.252848405420778 0.6043227769800211 0.2287517112796414 0.273877104344232 0.5639403195884488 18:1 115:1 195:1 
-2 -2 -2 -2 0 2 0 2 2 2 2 
-2 -2 -2 -2 0 2 0 2 2 2 2 
-2 -2 -2 -2 0 2 0 2 2 2 2 
-2 -2 -2 -2 0 2 0 2 2 2 2 
-2 -2 -2 -2 0 2 0 2 2 2 2 
-2 -2 -2 -2 0 2 0 2 2 2 2 
-2 -2 -2 -2 0 2 0 2 2 2 2 
-2 -2 -2 -2 0 2 0 2 2 2 2 
-2 -2 -2 -2 0 2 0 2 2 2 2 
-2 -2 -2 -2 0 2 0 2 2 2 2 
-2 -2 -2 -2 0 2 0 2 2 2 2 
-2 -2 -2 -2 0 2 0 2 2 2 2 
-2 -2 -2 -2 0 2 0 2 2 2 2 
-2 -2 -2 -2 0 2 0 2 2 2 2 
-2 -2 -2 -2 0 2 0 2 2 2 2 
-2 -2 -2 -2 0 2 0 2 2 2 2 
-2 -2 -2 -2 0 2 0 2 2 2 2 
-2 -2 -2 -2 0 2 0 2 2 2 2 
-0.2900974476031393 -0.1710856937482357 -0.4481571037731599 -0.3060097074163658 0.3472658427560906 1.337053960311107 0.808438173702556 0.4487219395269011 0.2734674653368239 0.4372600239211616 0.4708093798337596 115:1 185:1 211:1 
-0.5318417673786129 -0 -0 -0 0.009535988822915176 0 0 0 0 0 0 115:1 126:1 195:1 
-1.726916101563696 -0.9912358209157742 -1.387080968920461 -1.702580041728843 1.29581304648652 1.654796208996438 1.450790903346373 1.3079561688563 1.327625988097924 1.719174412055619 1.28751621449295 86:1 91:1 134:1 180:1 182:1 
-2 -2 -2 -2 0 2 0 2 2 2 2 
-2 -2 -2 -2 0 2 0 2 2 2 2 
-2 -2 -2 -2 0 2 0 2 2 2 2 
-2 -2 -2 -2 0 2 0 2 2 2 2 
-2 -2 -2 -2 0 2 1.680621603765619 2 2 2 2 
-0.5134466913827425 -0.3878628491891025 -0.6625004047098203 -0.7621887932690409 0.7026889327306745 0.7717920933805743 0.7850982105367925 0.5690241921561855 0.6066406719489017 0.8828700069558354 0.4485518464402715 18:1 27:1 115:1 126:1 151:1 185:1 195:1 
-2 -2 -2 -2 0 2 2 2 2 2 2 
-2 -2 -2 -2 0 2 2 2 2 2 2 
-2 -2 -2 -2 0 2 2 2 2 2 2 
-2 -2 -2 -2 0 2 2 2 2 2 2 
-2 -2 -2 -2 0 2 2 2 2 2 2 
-2 -2 -2 -2 0 2 2 2 2 2 2 
-0.3716589544784637 -0.590583136739035 -0.8283009759884151 -0.9037544482605552 0.8349570394406429 0.8024139404279044 0.8315316035798237 0.7430623205865081 0.7154234531962199 0.9766669954923012 0.4806163113627817 27:1 115:1 171:1 212:1 
-0.1984230309632864 -0.06687539790258111 -0.190146272728288 -0.5792994595689456 0.3238765337331278 0.20510922524009 0.3464704875945799 0.1403477255632977 0.2250868988600273 0.3789109128332233 0.08233265276126417 3:1 115:1 126:1 
-0.107922414442667 -0 -0 -0 0 0 0 0 0 0 0 18:1 19:1 115:1 126:1 211:1 
-2 -2 -2 -2 0 2 2 2 2 2 2 
-0.2287060254936809 -0.3176786620061932 -0.4782936751821404 -0.5871464509066198 0.4711532937206356 0.4655697461500418 0.5091250282993889 0.429679644526838 0.4091588706048068 0.5800409127741483 0.3449467378733549 18:1 27:1 115:1 151:1 180:1 
-2 -2 -2 -2 1.63515178581491 2 2 2 2 2 2 
-0 -0 -0.2466705693796791 -0.3158704000831717 0.4330984768910604 0.2817260467238595 0.353626090768363 0.06626667387233226 0.338564484539281 0.4866021033280743 0.09064812360261253 67:1 115:1 126:1 211:1 
-2 -2 -2 -2 2 2 2 2 2 2 2 
-2 -2 -2 -2 2 2 2 2 2 2 2 
-2 -2 -2 -2 2 2 2 2 2 2 2 
-0.1585259098259409 -0 -0 -0 0 0 0 0 0 0 0 18:1 19:1 115:1 126:1 151:1 
-2 -2 -2 -2 0.02682381821901635 2 2 2 2 2 2 
-0.4344386932699031 -0.5695334339767363 -0.7828838881522951 -0.9141095045794081 -0.3018038014267349 0.4912292630450882 1.357602231996853 0.6844983262341224 0.4570526066033708 0.6656790733963194 0.6502485417768201 70:1 134:1 138:1 160:1 217:1 
-0.3395257106381864 -0.406691318807724 -0.591499779929776 -0.6814797670666549 -0.337161714870427 0.4099258776420244 0.4491044482921427 0.5457344214572607 0.2803728507191413 0.559387873544425 0.4183398296240267 70:1 74:1 119:1 138:1 160:1 178:1 206:1 
-0.3983357752520714 -0.4938069567163432 -0.726224425218817 -0.8509804670986247 -0.3518760029527365 0.4568048226748518 0.7556567071524448 0.6507385609833908 0.3521660740323909 0.6338980810403124 0.4717693699695509 70:1 74:1 138:1 171:1 206:1 217:1 
-0.437956128346802 -0.5590608852581368 -1.269140082811014 -0.9741655899369547 -0.4347047152443438 0.528804561306485 0.5816907541194015 0.7745014487009177 0.3744850393527798 0.7413345657110734 0.544547382964605 53:1 70:1 76:1 137:1 
-0.1125723580313153 -0.143000064185326 -0.3352116503617899 -0.3886665657642675 -0.1558494015165544 0.1535803672565087 0.1741259468659313 0.2848334588809777 0.04063603634213422 0.3150143058724896 0.1423824070025333 59:1 70:1 126:1 160:1 206:1 
-0.1736318585409364 -0.1663190719977395 -0.2651557110767337 -0.3042331287187021 -0.2854432904537829 0.1777747155175897 0.1276904591164668 0.2706600831984414 0.1126655408612866 0.3194991484905237 0.1552867436214328 70:1 74:1 126:1 206:1 
-0.5541815490873235 -0.6394535705748273 -0.9336115162868281 -1.097526815299229 -0.5312000715921897 0.6415427034714312 0.7480708901869177 0.8548423495685423 0.453765979748272 0.8775337000552266 0.6668743987347731 3:1 42:1 47:1 109:1 113:1 129:1 170:1 213:1 
-0.4399106873899724 -0.4670592842669634 -0.7020584751546146 -0.7988104391589782 -0.3503577112995711 0.4925088494660986 0.8939781580160931 0.6486231747080697 0.3443598232574291 0.6264045120180703 0.5232092436552715 50:1 70:1 126:1 134:1 206:1 217:1 
-0.358439212889767 -0.4273687611425986 -0.6336227158804343 -0.7275489117366961 -0.3480796855050964 0.4270351255703577 0.5001618607158381 0.5775360447903586 0.2952997218712474 0.5908605197682676 0.4461808665732018 41:1 59:1 70:1 74:1 96:1 138:1 160:1 206:1 
-0.4548358066898041 -0.342333766613071 -0.4422097075023512 -0.5765634512961441 -0.2848596023036999 0.4920149439224133 0.3620125056910491 0.7253968299072149 0.4608666322257212 0.6290377887604072 0.3052778066605443 59:1 
-0.5390148297968116 -0.5560650394701183 -0.6532524373585867 -1.01510667486614 -0.4609902049337871 0.5544147629609996 0.4851391736566431 0.7521497421400948 0.4712580564366538 0.6374942594350932 0.4295492443267617 131:1 
-1.787328928063386 -1.953530568814628 -2 -1.950410524165269 -1.940241003422492 1.805645774398158 2 1.687749941791427 1.733786058738047 1.793077101157422 1.998080943824373 59:1 
-0.8361340737568537 -0.1901139016346683 -0.6260780567076318 -0.6281204245234003 -0.5800626504966397 0.2176455940136637 0.6153365581635998 0.8102222071814661 0.2967983526025132 0.3628787743750622 0.6070492104817211 70:1 142:1 171:1 180:1 
-1.785406289624784 -1.842087928990189 -1.979945458347475 -1.96851693213878 -1.849423142068714 1.844165467689076 2 1.818364456085271 1.780295344909009 1.946456531917865 1.992303786080899 131:1 
-0.3810609976467325 -0.4635110951639334 -0.663274036370015 -0.7465587890046902 -0.3518012772017615 0.4556511122488339 0.6083507043309082 0.604904870002161 0.3220805346900804 0.613433353144934 0.511697737642958 29:1 70:1 73:1 126:1 134:1 206:1 217:1 
-0.1956109429889247 -0.2817328639061123 -0.4510515931757489 -0.5617700618104291 -0.240341805448225 0.1988401139360592 0.6704608612828611 0.430507974964197 0.2277573545163681 0.3794420494406226 0.2317611884904033 29:1 70:1 126:1 206:1 217:1 
-0.3545183114906559 -0.4095046494110487 -0.7202931928414599 -0.8579367013740825 -0.3068780493320776 0.4468728336468761 0.4984920892538139 0.6956066031534885 0.2283198642390054 0.6563233701001236 0.4630090566958882 36:1 70:1 144:1 179:1 182:1 206:1 
-0.4810429707781417 -0.5764662458992658 -0.8593311936997856 -0.9830300164963951 -0.4695171034392971 0.5783762706220807 0.6741423832958742 0.7841221576825534 0.395468193405571 0.7998404827852887 0.5996634204714334 42:1 47:1 61:1 70:1 109:1 113:1 129:1 170:1 213:1 
-0.4186354333230419 -0.500922935454747 -1.185977421069602 -0.8349072383725373 -0.3989390374302536 0.49942104273597 0.5817453201190473 0.6580779848426181 0.3509404340140814 0.6832704238351737 0.5123010085107141 45:1 53:1 70:1 74:1 
-0.2862980546734801 -0.368000854864193 -0.5755667142206381 -0.6762206570535244 -0.2698435882464001 0.3609109549623981 0.4026779669818001 0.5064359896606079 0.2292590766109779 0.5314302734876887 0.3769829215301261 29:1 36:1 64:1 70:1 94:1 206:1 
-2 -2 -2 -2 -2 2 2 2 2 2 2 142:1 
-2 -2 -2 -2 -2 2 2 2 2 2 2 36:1 
-2 -2 -2 -2 -2 2 2 2 2 2 2 
-0.02505213701006338 -0.03727529872388478 -0.06427300465289768 -0.146820903680203 -0.01559613975039774 0.03850777416334258 0.02178597510842457 0.05804869962162322 0.01421462223294011 0.06234189597760231 0.04110304856241634 59:1 70:1 74:1 96:1 138:1 160:1 206:1 
-1.714437968040492 -1.355651402482609 -2 -2 -0.8854066480778611 1.421744655426761 1.257334814018825 1.659511819160413 1.187588791549731 1.808649816476487 2 10:1 119:1 134:1 
-1.455104312132315 -0.6978077979175049 -1.451825074925824 -1.335084777879457 -0.9038828880379125 0.6419420986452538 1.075173419549656 1.162722771339859 0.6792534746934785 0.965939338125629 1.631014009649772 10:1 142:1 180:1 213:1 
-0.3731647468898017 -0.3401496451170533 -0.6576546999007341 -0.916870461116404 -0.2861716760155641 0.4207991875352632 0.7649680479074835 0.5954353780447326 0.1815462982645791 0.6025367838356991 0.495638401651074 70:1 74:1 99:1 144:1 214:1 
-2 -2 -2 -2 -2 2 2 2 2 2 2 144:1 
-0.5593431073809352 -0.6708098506259491 -0.9774314596497354 -1.119406815190784 -0.5316904351560758 0.6774068986142766 0.7609160581088709 0.9114011803360942 0.470150677346996 0.915358086017193 0.695921627217945 66:1 70:1 134:1 138:1 160:1 178:1 180:1 206:1 213:1 
-0.8739210375681782 -1.201739854814876 -1.048338650314991 -0.957392930610044 -0.09326967366096961 0.5359144486139951 0.8899575301412325 0.2536429687846535 0.4114641445451931 0.1513260182744428 0.9321114351543209 70:1 180:1 
-0.6549778131403339 -0.7120176462635407 -1.108793105411224 -1.284734122036284 -0.577639883458663 0.732870762166522 1.083861763445198 1.003784236414671 0.4801628766837557 1.016930921315998 0.8125471649752156 66:1 70:1 110:1 126:1 128:1 134:1 163:1 182:1 214:1 
-0.3232540147435975 -0.4071774523491244 -0.7618488011662847 -0.8109527940245437 -0.3133762594792958 0.3830156779602367 0.5109513900066462 0.589359967871443 0.237320757849897 0.5876689009843495 0.5136210642211235 59:1 67:1 70:1 126:1 134:1 
-0.5704429306668543 -0.632674845345066 -0.9779064347434927 -1.144472865902542 -0.5205006663485081 0.647053455995346 0.8159287450093606 0.8952653538296547 0.4411193698519832 0.8931776599976877 0.68810773031447 41:1 70:1 74:1 96:1 128:1 160:1 180:1 206:1 214:1 
-1.641691005718278 -2 -2 -2 -1.288477719110472 1.415249476509811 2 2 1.222661237963232 1.785066428350751 1.608432103435772 128:1 163:1 
-0.6223709834023986 -0.4879568476499896 -0.8154006218885961 -1.220363879846533 -0.4771611604805487 0.6277663056913183 1.232850614658491 0.7712150952561212 0.3279519887660432 0.7741206038879584 0.6366453802416049 70:1 137:1 180:1 214:1 
-0 -0 -1.367702525671817 -0 -0 0 0 0 0 0 0 70:1 
-0 -0 -2 -0 -0 0 0 0 0 0 0 70:1 
-0.5019324121346057 -0.59555934970421 -0.8836178746738671 -1.017075726082053 -0.4876203795582305 0.5968127509109262 0.6982959663637103 0.8072848550324772 0.4132413944106284 0.8237648027744164 0.6219457207379293 61:1 62:1 70:1 74:1 119:1 138:1 149:1 160:1 206:1 
-0.3210494981348687 -0.4029460697473247 -0.5670573812380065 -0.6202081448015515 -0.3263843192017349 0.3854757471924822 0.4634326584335514 0.478595508430403 0.2906242332536815 0.5296794068811973 0.5504823087055916 70:1 99:1 
-2 -2 -2 -2 -2 2 2 2 2 2 2 
-0 -0 -2 -2 -0 0 0.4587226976062851 0 0 0 0 70:1 
-0.3845329210854723 -0.4394927755819076 -0.6370361357957713 -0.7199985095898065 -0.3693524991928656 0.4513714140084166 0.5019738373173463 0.7185154243184252 0.3120352824302304 0.5983159493991012 0.4696383083824955 29:1 36:1 94:1 206:1 
-0.2203737141144255 -0.2661678942616763 -0.4004723024313754 -0.449278300368768 -0.206992672924538 0.2697705679799562 0.2961244351625001 0.3669014759526052 0.1747335362813945 0.3769132427330708 0.2822581161357201 59:1 62:1 70:1 74:1 138:1 160:1 206:1 
-0.1162631786460389 -0.3087339542550701 -0.5823910465996548 -0.8147762930088962 -0.0799910122475838 0.1650331105437141 1.078080516762855 0.5917517776839427 0.1760089585029291 0.4386662823150199 0.2522264042856258 36:1 42:1 70:1 217:1 
-0.5909219106392294 -0.659062880947767 -1.026675164069965 -1.177301149322858 -0.5242608688200291 0.6466348278562184 0.8737863009975333 0.8859457797641054 0.465474763051263 0.940549453298497 0.7465352314798634 10:1 42:1 47:1 70:1 129:1 170:1 217:1 
-0.5732795242684098 -0.6348536440455276 -0.8433681867462107 -1.204030476659308 -0.6877501870127737 0.667488301744024 0.9844690758905266 0.7733415093600254 0.4865057045719989 0.7539784274342662 0.6390727129357846 70:1 96:1 115:1 134:1 
-0.9784485027912002 -0.6678871839962436 -1.28807137221999 -1.500164961542372 -0.5255009710442479 0.7572904109389398 1.181330693471838 1.03268392377673 0.5684428640435092 0.6431420468607913 1.89887888638143 70:1 134:1 154:1 
-0.07512183356070393 -0.003412480377679261 -1.245712121828763 -1.459277743501087 -0.7957114650859917 0.5914243326836495 2 0 0.7809171469117813 0.2528809158712754 0 70:1 
-0.6793390104933018 -0.8341514788597115 -1.269329541617856 -1.390005436060322 -0.6430866105705194 -1.20020878906388 1.204332083223231 1.075542359484696 0.9106683443089801 1.195910187039461 0.8476011911893354 17:1 18:1 38:1 56:1 63:1 134:1 137:1 162:1 166:1 177:1 182:1 185:1 193:1 214:1 
-0.4970827603789322 -0.6253995705820776 -0.9429435181033581 -1.044251341606467 -0.4091498456971696 -0.8316258179259709 0.9772230999962356 1.088445625457482 0.6477272388270232 0.8750793336329066 0.623459576941214 17:1 44:1 55:1 108:1 134:1 185:1 
-0.2807703844207082 -0.2744886304384361 -0.6257406424224041 -0.4007146584112209 -0.2487865011674088 -0.2830309183810851 2 0.5147525850443269 0.1284333405161702 0.4446406519071545 0.4338342090262668 31:1 162:1 185:1 
-0.6114122810020216 -0.720015519671259 -1.075319924469436 -1.182849277597669 -0.5671943133425089 -0.9766491833543597 1.029076266826646 0.9665779244961294 0.7270617832792025 1.040037035274462 0.7325875150085912 17:1 66:1 91:1 126:1 154:1 180:1 185:1 
-2 -2 -2 -2 -2 -0 0 2 2 2 2 
-0.6336872469439664 -0.2324510201617125 -0.3664904805863836 -0.8756728758388501 -0.3064979952129486 -0.2780576366410388 0.6451342918426167 0.6839961580916174 0.2202192498133309 0.4447022909235226 0.4148994186206239 1:1 4:1 182:1 185:1 
-2 -2 -2 -2 -2 -0 0 2 2 2 2 
-0 -0 -0 -0 -0 -0 0.8950112251311757 0 0 0 0 166:1 185:1 214:1 
-0 -0 -0.07470902108999013 -0.01793852034454548 -0 -0.1464405948259729 0.1842046509703334 0 0.09546680446802958 0 0 166:1 171:1 185:1 193:1 214:1 
-2 -2 -2 -2 -2 -0.7653397021686893 0.7687346536330316 2 0.9091786188863916 2 2 100:1 
-0.5257695554028177 -0.2993486105593023 -0.5785547930377615 -0.6698587363118776 -0.1877953390742708 -0.5882252475986067 1.2423940679917 0.3972832013917993 0.4256890447219617 0.637058103375775 0.7558518834854004 4:1 134:1 135:1 182:1 185:1 214:1 
-0 -0 -0 -0.2022358154906385 -0 -0 2 0.1438069306395247 0 0 0 182:1 185:1 214:1 
-0.2720590231892675 -0.3822099338169439 -0.7115247454512884 -0.7148602213385583 -0.3079224280908319 -0.7432252804957228 0.7672381501566501 0.4631598135267819 0.5070103912519384 0.5641094819807635 0.5279930708918557 4:1 142:1 166:1 171:1 185:1 193:1 
-0.02766117897913454 -0.0919996663416958 -0.2214867772697773 -0.4147367196103016 -0 -0.4954324498955698 0.2723003223557782 0.2944200804703646 0.3627295750744085 0.2360888071570276 0 4:1 134:1 166:1 193:1 220:1 
-0.2093000972254609 -0 -0 -0.1995537401647245 -0 -0.208239439588861 0.6710713417268049 0.05164403440196632 0.1447287611269478 0.1348916720133537 0.3905173862391084 4:1 134:1 166:1 193:1 214:1 
-2 -2 -2 -2 -2 -0 0 2 2 2 2 
-2 -2 -2 -2 -2 -0 0 2 2 2 2 
-2 -2 -2 -2 -2 -0 0 2 2 2 2 
-0 -0 -0 -1.013268061968883 -0 -0 0 1.159299204254501 0 0 0 134:1 182:1 
-1.498259751962041 -0 -0.8346327111003784 -2 -0 -0 0 2 0 0 0.02191189101251075 134:1 182:1 
-0 -0 -0.008917754161490253 -0.02470736636667044 -0 -0.1680092739669106 2 0 0.1031618166460358 0.1933653298031545 0 85:1 134:1 185:1 193:1 
-0.4773227379100221 -0.5718113993954366 -1.461705282964753 -1.065591704598392 -0.3550132390722714 -0.955641817527151 1.030950288894169 0.8061470603986997 0.7040071872598692 0.8488604805316077 0.6548634537503734 17:1 69:1 134:1 154:1 177:1 185:1 217:1 
-0 -0 -0 -0 -0 -0 1.699182924532932 0 0 0 0 85:1 185:1 
-0 -0 -0 -0 -0 -0 2 0 0 0 0 85:1 185:1 
-0 -0 -0 -0 -0 -0 2 0 0 0 0 85:1 185:1 
-0 -0 -0 -0 -0 -0 2 0 0 0 0 85:1 185:1 
-0 -0 -0 -0 -0 -0 2 0 0 0 0 85:1 185:1 
-2 -2 -2 -2 -1.515437261426448 -0.05208110846592916 0.3666899036790006 2 2 2 2 134:1 
-0.0230298409172363 -0.06552623124895721 -0 -0 -0.1245793183642964 -0 0 0.058905419361338 0 0.01946478599067714 0.1858880739235802 17:1 97:1 185:1 
-0 -0 -0 -0 -0 -0 0.08804874484190275 0 0 0 0 97:1 185:1 193:1 
-0.4376869757371108 -0.1592779265785672 -0.5852047876340642 -0.7518673731298565 -0.2709456898567951 -0.4686202237449311 0.528233184793254 0.5311110250195764 0.3397249167759366 0.6332354940904157 0.2632203823269641 4:1 31:1 50:1 182:1 185:1 
-2 -2 -2 -2 -2 -0 0 2 2 2 2 
-0 -0 -0.2300919318646415 -0 -0 -0.1643213993156625 0.1876372224285586 0 0.1030745292838234 0.05920519812307548 0 17:1 134:1 166:1 182:1 185:1 
-1.966112271796688 -1.360588598569997 -1.995701071928517 -2 -0.6664556010402378 -0.5666759118391271 0.3492486570272836 2 0.6263988606791128 1.291861643984604 2 134:1 182:1 
-2 -2 -2 -2 -2 -0 0 2 2 2 2 
-0 -0.1075113530442866 -0.3408849341752044 -0.1578850971245971 -0 -0.3157839829455045 0.779452861033889 0.03731489579369449 0.2275592422950594 0.2812056711191016 0.07776386251294881 1:1 134:1 166:1 185:1 193:1 
-0.434597438393249 -0.3198922754187035 -0.3757766135200468 -0.12287554421725 -0.4101645126791193 -0 2 0.6831356600919433 0 0.3950075999429641 0.5414033656762872 85:1 185:1 
-2 -2 -2 -2 -2 -0 0 2 2 2 2 
-0.6091907662436655 -0.2011299845440671 -1.084636121101405 -0.6559969474679294 -0.2015573847170965 -0.9083529609880281 0.7217461002212313 0.5198658908203652 0.2934383090379563 0.8238218767288396 0.3168139086100528 17:1 50:1 70:1 185:1 
-2 -2 -2 -2 -2 -0 0 2 2 2 2 
-2 -2 -2 -2 -2 -0 0 2 2 2 2 
-2 -2 -2 -2 -2 -0 0 2 2 2 2 
-2 -2 -2 -2 -2 -0 0 2 2 2 2 
-2 -2 -2 -2 -2 -0 0 2 2 2 2 
-2 -2 -2 -2 -2 -0 0 2 2 2 2 
-0 -0 -0 -0 -0 -0.07124033237445523 0.1849647379457957 0 0 0 0 98:1 185:1 193:1 
-1.306708401305766 -0.1060482518998297 -0.6834545571177028 -1.451436577477146 -1.283332987813045 -0 0.1250123036929793 0.8852513324314679 0 0.1660937713863799 0.5393239886157232 154:1 185:1 
-0.1133029209660414 -0.2901939939257727 -0.3531149628687087 -0.7056135064942476 -0.1996257906140946 -0.3746532186248488 0.5432528354270869 0.4819022698095625 0.2138820792214924 0.3781423713914848 0.1548838078825142 4:1 180:1 185:1 209:1 
-0.5468879534730052 -1.142653961299703 -1.892613530100801 -0.5373455479052883 -0.3811440930443711 -0 0.8147480840353367 1.555342213601993 1.753747400086029 1.504749259736669 1.259004237584904 185:1 217:1 
-0 -0 -0.05922556347060408 -0 -0 -0.1164467224589913 0.01058430702465738 0 0.1013698218021616 0 0 4:1 31:1 166:1 185:1 209:1 
-0 -0 -0 -0.2271052265287965 -0 -0.4258865379085752 0.2700702300792345 0 0.2275851946933464 0 0 166:1 209:1 214:1 
-2 -2 -2 -2 -2 -0 0 2 2 2 2 
-2 -2 -2 -2 -2 -0 0 2 2 2 2 
-2 -2 -2 -2 -2 -0 0 2 2 2 2 
-2 -2 -2 -2 -2 -0 0 2 2 2 2 
-0.9841183986446498 -0.2897064163372181 -0.6642498503383919 -0.6878900404694618 -0.2065969723414565 -0.5311319248874815 1.016961077443454 0.4264180016461181 0.4149428126817706 0.4846222031387236 0.5331468940070138 4:1 17:1 177:1 185:1 193:1 214:1 
-0.5319940729688106 -0.4435812894879723 -1.481640266366414 -0.646566209535702 -0.3511319549401278 -0.4695758984756409 0.4350515982671705 0.7005300955130945 0.3590247001646378 0.6235317721515389 0.4136044105952344 17:1 97:1 177:1 185:1 
-0 -0 -0 -0 -0 -0.07169121991386311 0.3016679715393795 1.017190724394037 0 0.3370391894561869 0 106:1 185:1 193:1 
-0.3771891113187212 -0 -0 -0.4192077858386541 -0 -0.1404412900627387 2 0.2813499683831148 0 0.1655689380895784 0.201870615053744 63:1 185:1 214:1 
-0.03144628321747919 -0 -0.04397210560742138 -0.2451646515546452 -0 -0.3158569151895099 1.924883006858026 0.01939482804525092 0.1450547525047713 0.1862937025866082 0.01272740654726023 18:1 185:1 193:1 214:1 
-0 -0 -0 -0 -0 -0 2 0 0 0 0 185:1 214:1 
-2 -2 -2 -2 -2 -0.5389888748384455 0.6283703679188432 2 0.7972839337759551 2 2 50:1 
-0 -0 -0 -0.1808805906475657 -0 -0.2449683259462339 0.06748584626789483 0 0.249101091201039 0.01396845305862942 0.008849655685675733 31:1 166:1 
